academic -0.045456 0.14533 -0.061298 0.081122 0.069366 -0.026131 0.042785 0.093539 0.028767 0.61744 0.17735 0.10744 -0.11746 -0.24673 0.13828 -0.13365 0.35559 0.23533 -0.33282 0.2673 -0.0060539 0.15137 0.15618 -0.43233 0.17387 0.015374 0.096655 0.14851 0.0843 0.28615 -0.11784 0.31515 -0.082146 0.032648 -0.081371 -0.056328 -0.10335 0.12237 0.06219 -0.1778 0.087711 0.080153 -0.2035 -0.0042514 0.11525 0.16717 0.26667 0.04439 0.33353 -0.47441 0.29915 -0.15933 -0.21272 -0.18204 -0.25718 -0.4657 -0.32007 -0.078359 0.1316 0.65858 -0.10974 0.25327 0.17716 0.026508 -0.055491 -0.21702 0.34963 -0.032754 -0.14973 0.0014427 -0.12914 -0.029853 0.061874 -0.19075 0.5593 -0.27771 0.49124 0.4568 0.041608 0.073821 -0.051023 0.30383 -0.2499 -0.44144 -0.054092 -0.017972 -0.19733 -0.011446 -0.21293 -0.4488 -0.038424 -0.30458 0.6202 -0.84505 -0.10195 -0.19973 0.095543 0.21714 0.018188 -0.013935 0.045831 0.032913 0.47918 -0.23334 -0.05677 0.27438 -0.20683 0.032144 -0.14169 -0.13775 -0.1282 0.2707 -0.503 -0.27997 0.093332 0.072434 0.041046 0.15963 0.0071926 0.40274 -0.1731 -0.10885 -0.19877 0.41576 0.39383 -0.42396 0.04411 -0.070187 -0.075309 -0.47541 0.17232 -0.34832 0.33504 -0.28602 0.010734 0.10701 -0.07044 -0.24233 0.025231 0.30436 -0.28342 0.28867 0.32717 0.047846 0.1035 -0.027692 -0.20311 0.059101 -0.31949 -0.29914 0.36358 -0.027114 0.22308 0.13829 0.2698 0.27242 0.015556 -0.32506 -0.069454 0.5094 0.26345 0.4393 -0.14503 0.009586 0.71888 0.22352 0.18762 -0.040204 0.084984 0.067318 -0.31433 -0.28282 -0.067467 0.017114 -0.15185 0.13084 -0.079575 0.2556 -0.035893 0.20642 -0.093662 0.23545 -0.1394 0.23093 -0.27283 0.29932 0.083495 0.10046 0.2885 -0.34577 0.054642 -0.21654 0.14131 0.099542 -0.38852 0.089058 0.092128 0.0016455 -0.091122 -0.27924 0.4554 -0.10578 -0.087815 -0.46632 0.024415 -0.080289 -0.14929 -0.40984 0.17732 0.28729 0.53833 0.12145 0.10159 -0.21107 -0.12597 0.068465 0.094384 -0.17702 -0.016437 -0.27858 -0.24785 0.13204 -0.31606 0.16978 -0.075697 -0.029381 0.041203 0.055666 -0.025389 0.15404 0.10189 0.022898 -0.09746 -0.26241 0.28069 0.017995 0.061856 0.1195 -0.077478 0.2474 0.011411 0.14973 0.016673 -0.35699 0.43973 -0.21277 0.34358 0.16302 -0.2119 0.12514 0.12058 -0.022364 -0.23929 -0.3668 0.002098 0.0076226 0.014834 -0.089117 0.19456 0.19556 -0.2485 0.45804 0.2003 -0.04706 -0.26039 0.34558 0.17355 -0.068767 -0.18385 -0.032761 0.26764 -0.079781 -0.040227 0.093023 -0.052458 -0.078156 -0.18145 0.34834 -0.30319 0.10942 -0.3323 0.20148 -0.20745 0.095025 -0.25527 -0.028944 0.047149 0.31638 0.084997 0.17999 0.015261 0.16148 0.31789 -0.37782 -0.15027 -0.10776 -0.080059 0.22339 -0.015231 -0.014224 
ajax -0.10344 -0.086382 -0.11683 0.69447 0.00072269 0.051804 -0.0083834 0.30816 -0.32302 0.3346 0.056823 -0.46988 0.2765 0.065639 -0.5407 -0.49951 -0.41386 0.088273 0.17531 0.24627 -0.18297 0.15704 -0.41146 -0.18083 -0.43885 -0.005874 -0.065267 0.19414 -0.43354 -0.25293 -0.085836 0.50628 -0.48162 0.079172 -0.082268 0.10906 -0.15572 -0.25911 0.66405 -0.50098 -0.2667 0.059524 0.42426 0.035559 0.20678 0.023115 -0.60067 0.556 -0.52105 0.16382 0.36989 0.42882 -0.19482 0.14459 -0.34222 0.41086 0.03322 -0.15524 0.029308 0.27779 -0.034205 -0.14763 0.23084 0.055433 0.27034 0.081131 0.17497 0.12799 0.13198 0.20232 0.13047 -0.067109 0.021453 -0.37209 0.24916 0.8287 0.060377 -0.066338 -0.25474 -0.4062 0.07003 0.60382 -0.49831 0.14348 0.082432 -0.072245 0.44483 0.28064 0.47114 -0.28798 -0.21731 -0.31647 0.52502 0.11336 -0.17797 -0.00034548 -0.6928 -0.48754 -0.14691 0.41552 -0.24916 0.044339 0.20727 -0.21532 0.17804 0.34381 -0.29253 0.21203 0.21432 0.27755 -0.51036 0.12443 -0.081548 0.077577 -0.37694 -0.23559 0.36869 0.15795 -0.25803 0.07693 -0.34401 0.0034638 0.40671 -0.07393 0.23104 -0.46814 0.16824 0.23322 0.44967 0.12113 -0.61125 0.58578 -0.19676 -0.31303 0.15693 0.68063 0.052645 0.26795 0.30957 0.076598 0.18708 0.47676 0.78347 -0.025342 -0.4132 0.065215 0.34582 -0.12162 -0.064143 0.032365 -0.43007 -0.15944 0.043981 -0.62412 -0.14108 -0.28746 0.062113 -0.31518 -0.25091 -0.067036 0.39507 -0.38655 -0.11258 0.66246 0.55412 0.31127 0.13694 -0.17483 0.17597 0.36867 -0.51268 -0.42395 -0.22382 0.38933 -0.4206 0.10138 0.078168 -0.16893 -0.33629 -0.50411 -0.85072 -0.4374 0.23647 -0.5036 -0.00021398 0.28623 0.021514 0.40756 -0.16912 0.079868 0.21807 0.16341 -0.18626 0.56405 0.02829 0.023356 0.18804 -0.09564 -0.12474 -0.11532 0.41531 0.34979 0.0014573 -0.015416 0.082492 -0.066005 0.14522 -0.259 0.62096 0.24651 0.46623 0.34213 -0.15436 -0.074425 0.31103 0.17424 -0.028154 0.071676 -0.20356 0.096248 0.13008 -0.019462 -0.1302 0.51955 0.28677 -0.079665 0.16257 -0.22489 0.15448 -0.17316 0.27736 0.037715 -0.20485 -0.17142 -0.16515 0.63921 -0.096717 -0.14405 -0.036153 -0.26102 0.2599 0.09862 -0.01512 -0.4343 -0.10111 0.29861 0.2311 0.55221 -0.010739 -0.062314 0.26199 -0.49418 0.05049 -0.049358 -0.085585 -0.17169 -0.069657 0.035903 -0.30738 0.32739 0.068987 0.29795 0.69862 0.3156 -0.95614 0.10365 0.17943 0.23388 -0.12377 -0.31564 -0.15213 -0.20511 -0.11421 -0.26094 -0.27935 -0.38979 0.26702 0.066271 -0.15401 -0.068441 0.58488 -0.30662 -0.29633 0.0566 -0.49347 -0.46151 -0.042304 0.72947 0.179 0.17584 0.32581 -0.5665 -0.27662 -0.054199 0.20324 0.009485 -0.30048 -0.25016 0.3583 0.026012 
all -0.42965 0.0088802 -0.20334 0.3175 0.046608 0.087144 -0.039991 -0.2754 -0.014379 0.16212 0.13356 0.053119 -0.019098 -0.12506 -0.024932 0.020046 -0.077413 -0.048549 -0.078301 0.023917 -0.30604 0.23914 -0.16549 -0.014935 -0.067174 0.092052 0.10943 0.077801 -0.0019634 0.17112 -0.023338 0.078832 -0.089082 0.24323 -0.10486 -0.12815 0.23938 -0.017536 -0.088876 -0.055258 0.023468 -0.18116 -0.12018 0.15627 0.020228 0.24384 0.058268 -0.19301 0.0061237 -0.1431 -0.12233 -0.23044 -0.06686 -0.03275 -0.28975 -0.031955 -0.15657 -0.0046447 -0.34629 0.16072 0.10008 -0.086969 0.37103 -0.35766 0.21389 -0.10356 -0.0033891 -0.032044 -0.18631 0.17904 -0.027564 -0.18208 0.045534 -0.28746 -0.13556 -0.064947 0.26073 0.11846 0.047528 -0.045252 -0.037418 0.18184 -0.27369 0.21925 -0.13466 0.18854 0.04712 0.17052 0.13561 -0.17757 -0.16426 0.18872 0.2 -0.2609 0.0073115 -0.070688 0.10376 0.056869 0.060297 -0.069054 0.20653 0.012256 0.14446 -0.081493 -0.32633 -0.26051 -0.19404 0.057902 -0.18123 0.093194 0.060564 -0.092249 -0.046576 0.016841 0.093002 -0.073175 0.40035 0.079836 -0.01474 0.17141 0.11818 -0.060034 -0.09074 0.19669 0.080111 0.062201 0.27632 0.023134 0.14159 0.28064 0.27237 0.14235 -0.16656 0.21778 0.20592 -0.021267 -0.069916 0.1658 0.26698 0.086414 0.083855 0.15162 0.18579 0.017757 0.18859 0.1688 -0.082017 0.0097354 0.038319 0.018847 -0.042382 -0.072064 0.0083685 -0.12679 0.0041041 0.12105 -0.040381 -0.15393 0.20437 0.28037 -0.17976 -0.215 -0.16445 0.27284 -0.094615 0.075256 -0.06525 0.050482 0.080204 0.075281 0.042197 -0.16842 -0.14679 0.061092 -0.26909 0.20269 -0.045017 0.046155 0.079746 -0.0035558 0.13033 -0.16793 -0.070565 0.2651 -0.17141 0.22394 -0.010464 -0.19645 0.058532 -0.18619 0.038604 -0.013632 0.10491 0.1001 -0.14533 -0.059982 -0.19854 0.078153 -0.30593 -0.15741 0.17248 -0.13547 0.017064 -0.041899 0.13739 -0.051294 -0.15157 -0.044107 0.28239 -0.0038653 0.24701 -0.3559 0.15038 0.073476 0.30945 -0.033385 -0.039795 -0.1738 -0.039525 0.019248 -0.095246 0.18088 0.020459 -0.0321 -0.05684 0.3275 -0.00089029 -0.22052 0.061158 -0.07099 0.28926 0.08613 -0.037341 -0.068044 0.11947 0.081472 0.036236 -0.089263 0.10454 0.050139 0.1052 0.0049095 0.0088752 0.12309 -0.06785 0.10891 0.26034 -0.0055677 0.16537 0.11733 0.072281 0.020446 -0.1384 -0.15131 0.042036 0.20698 -0.080284 -0.1019 0.075711 -0.10935 0.13224 -0.025915 -0.0080608 -0.10096 -0.0026213 0.059181 -0.16895 -0.046259 -0.18888 -0.11783 0.026414 0.10926 0.060116 -0.0052691 0.014903 0.0046529 -0.22772 0.082784 -0.045502 -0.048428 0.17518 0.04156 0.0088114 -0.14547 0.084435 -0.0042664 0.13117 0.35262 -0.45328 0.18638 0.2353 0.024114 0.31682 0.18082 0.22047 -0.019153 -0.16688 -0.17553 0.13171 -0.028725 
allgemein 0.24579 0.17656 -0.1534 0.25091 -0.085063 0.40117 -0.039268 0.064251 -0.093164 0.030942 -0.46188 0.061374 0.12093 -0.11545 -0.046426 -0.42706 0.23074 -0.19033 0.46311 0.87908 -0.24983 0.35992 0.28812 -0.12505 -0.050864 -0.20438 0.067471 -0.13576 0.45907 0.58648 -0.070727 0.27245 0.05804 0.32824 -0.13194 -0.18964 -0.22417 0.22623 -0.052851 0.22838 0.22434 0.28784 0.20351 0.15455 0.18723 0.54579 -0.13006 0.11724 0.59454 -0.061882 -0.086173 -0.74247 -0.25898 -0.32223 -0.40094 -0.69809 0.50364 0.053904 0.11501 0.16481 0.043535 -0.10369 0.09744 -0.030178 0.35999 -0.36269 0.00047518 0.1945 0.021736 0.025852 0.42445 -0.058155 0.63128 -0.019418 -0.35499 0.12002 0.088013 0.30956 -0.098154 -0.56653 0.33938 0.084165 -0.19686 0.39214 -0.22149 -0.14799 0.19474 -0.65381 -0.017954 0.21318 0.37003 -0.16241 -0.21272 -0.6804 -0.42787 0.092422 -0.17616 0.19737 -0.070106 -0.14133 -0.0082958 0.11972 -0.011868 -0.25171 0.45113 0.20617 0.011455 -0.0078326 -0.0061309 -0.35616 -0.65818 0.007206 0.21297 -0.15814 0.012317 0.07814 -0.22888 0.36453 0.49531 0.29419 0.33022 -0.017803 -0.62156 0.46767 -0.64756 0.14213 -0.44112 0.11272 -0.068337 0.13875 0.14626 0.10144 -0.0084296 -0.76908 -0.17416 -0.19854 -0.36646 0.17643 0.12915 0.39928 -0.56049 -0.2796 -0.028109 0.1327 0.082436 0.46241 0.38515 0.54003 0.14338 -0.1094 -0.071489 0.0872 -0.33031 -0.33155 -0.39082 0.26892 0.38723 0.09931 -0.51139 0.53721 0.52466 0.72583 -0.015391 -0.26665 0.22552 -0.28844 0.03654 0.1295 0.5648 0.73065 0.046442 0.021524 -0.38943 -0.085886 -0.20772 0.00024307 -0.60671 -0.15317 -0.072778 -0.008667 -0.60752 -0.90212 -0.45229 -0.37935 -0.16872 0.25137 0.24797 -0.068973 0.020215 0.47885 0.45743 -0.73327 0.1069 0.052145 -0.32906 -0.33353 0.14439 0.15571 -0.40357 -0.63696 0.81595 -0.11389 0.46025 0.088174 0.59561 -0.28751 -0.089614 -0.19237 0.32245 0.057884 -0.036646 -0.054676 0.46826 0.26263 -0.0029345 0.35595 0.083152 -0.22742 -0.11202 -0.11295 0.25566 0.11731 -0.21466 0.016211 0.094146 0.0018177 0.54158 -0.67738 0.55284 0.4003 0.24569 -0.1344 0.11261 -0.19591 0.52514 0.63037 0.37236 0.11705 0.34256 -0.61096 -0.17062 0.22241 0.92703 -0.42239 -0.28174 -0.65592 -0.22162 -0.2242 -0.47702 -0.44333 0.70358 0.47528 -0.39273 -0.084129 0.17082 0.20253 0.19183 -0.47366 -0.12088 -0.084996 -0.35586 0.35904 0.15649 0.38206 -0.49658 0.12697 0.15195 -0.43707 0.33949 -0.27061 -0.55826 -0.0024398 0.39002 0.49551 -0.088952 -0.5039 0.085832 0.49919 -0.047354 -0.12699 -0.15006 -0.27786 0.16983 0.51518 -0.39938 0.035089 -0.4338 -0.12228 -0.61049 0.10421 -0.17695 0.11417 0.18196 0.65048 -0.05679 -0.23789 -0.64123 -0.12936 0.27374 -0.032169 
api 0.061832 0.22491 -0.40742 0.024929 -0.3529 -0.36571 0.092516 -0.13581 -0.27838 -0.21891 -0.0053783 -0.14665 -0.099107 0.39228 0.47039 -0.47635 0.24688 0.31092 0.29822 0.67531 -0.48627 -0.0031393 -0.057816 -0.21188 -0.33845 -0.30289 0.080902 -0.046806 -0.28942 -0.49941 -0.44054 0.18696 0.056511 0.18485 -0.2725 0.09517 -0.018216 -0.20801 0.28303 -0.080225 -0.19128 -0.13258 -0.042529 -0.23113 -0.021416 0.023909 -0.38562 0.26903 -0.043214 -0.20329 0.39872 0.10605 -0.020166 -0.28837 0.30791 0.56148 -0.049969 -0.23438 0.012946 0.071386 -0.10303 0.19365 -0.10617 -0.22981 -0.18303 -0.0044263 0.38095 0.44801 -0.22132 0.58981 0.27298 0.029349 0.58775 -0.40005 0.081251 0.5374 0.025217 -0.093883 0.071427 0.16723 0.10103 0.34625 -0.32973 0.17019 -0.23747 -0.1936 -0.082285 0.36374 0.056022 -0.026544 0.18568 0.24775 0.26449 -0.3496 -0.13619 -0.17469 -0.294 0.30389 0.43737 0.0016769 -0.13261 0.12493 0.76904 -0.27389 0.12576 0.3467 -0.37327 -0.066106 0.16592 0.35658 -0.52434 0.43773 -0.50789 0.09988 -0.99594 0.13736 -0.084954 0.20933 -0.3348 -0.57666 0.53667 -0.02864 -0.34996 0.49099 0.49176 -0.057884 0.32648 -0.045134 0.01315 0.22434 -0.12501 -0.021827 -0.46466 0.033914 0.19558 0.18298 -0.33656 0.074167 -0.024147 0.15312 0.14536 0.47866 0.12958 -0.19104 0.25684 0.74667 0.026815 0.24904 0.043973 -0.19449 0.095401 -0.17787 -0.031548 -0.11345 -0.2268 -0.28683 0.39266 -0.0058384 -0.090679 -0.086235 0.18757 -0.00041728 -0.46888 0.199 0.0049843 0.055276 0.2086 -0.75858 0.032556 0.44323 -0.028378 -0.053122 0.047962 0.2964 -0.31036 0.071484 -0.12587 -0.06077 0.13939 -0.26118 -0.41517 0.14272 0.40984 0.16059 -0.29774 0.4516 -0.27494 0.16345 0.47754 -0.17928 0.24723 0.19769 0.30956 -0.40198 -0.44561 -0.19467 0.26235 0.23049 -0.31341 0.03069 0.42614 0.033794 0.26061 -0.7962 -0.37862 -0.35712 0.29421 -0.13172 0.26091 0.054694 0.53172 0.22783 0.11242 -0.027652 0.012934 -0.26216 -0.12421 -0.15858 -0.25427 0.32055 0.25569 -0.12347 0.081409 0.17494 0.20333 -0.018206 -0.39072 -0.43026 -0.51639 -0.051792 0.10776 -0.28738 -0.32829 -0.1673 0.12889 -0.11636 -0.76881 -0.29428 0.022373 -0.15855 0.56741 0.26437 -0.023996 -0.14774 0.19255 0.20828 0.42437 -0.12773 -0.34011 0.42201 0.011106 -0.38249 0.058139 0.0034533 0.22283 0.31598 0.40622 -0.47211 0.027919 -0.043282 -0.483 -0.31095 0.099917 0.47626 -0.38297 0.25818 -0.032982 -0.25065 0.095365 0.023128 -0.77252 0.15305 0.32483 -0.14757 0.48327 -0.1187 0.46116 0.35478 0.097291 -0.39759 0.29617 0.047843 -0.088205 -0.068468 -0.42793 -0.32139 -0.21717 0.13116 0.091499 0.20641 0.40772 -0.33524 -0.091418 0.11355 0.73136 -0.16315 -0.51953 0.23271 0.2735 -0.24983 
apple 0.26407 0.30485 0.049004 -0.44378 0.16519 -0.094734 -0.013514 -0.17237 0.037485 0.34963 0.14335 -0.11135 0.072474 0.12725 0.15805 -0.1601 0.28202 0.10288 0.26432 0.068018 -0.26954 -0.038155 -0.11638 -0.15829 0.047974 0.023934 -0.060495 -0.33511 0.02059 -0.1372 -0.29778 -0.1539 -0.17963 0.35599 -0.099341 0.1365 -0.11602 0.011756 0.054813 -0.03741 0.13363 -0.19601 0.035644 0.19569 -0.020126 -0.062379 -0.10362 0.031371 0.2558 -0.035944 0.43562 0.15935 -0.061345 0.0239 0.064619 0.27386 -0.24069 -0.40852 0.58953 0.36572 0.14813 0.18063 0.097062 -0.34981 -0.106 -0.0036307 0.51771 -0.16047 -0.15207 0.056044 -0.12839 0.26818 0.9843 0.077782 -0.090505 0.47302 -0.1223 0.28481 -0.35226 -0.37645 0.082483 0.17666 0.14278 -0.13554 -0.14268 0.20705 0.050668 0.3476 0.68725 0.40674 0.17459 -0.063433 0.2229 -0.050108 0.64285 -0.25858 -0.43007 -0.083644 0.069048 -0.13918 0.4581 -0.058684 0.070426 -0.18323 -0.2665 0.44541 -0.28674 0.71248 -0.080884 0.51651 -0.21609 -0.11793 -0.044654 0.35896 -0.45401 -0.27439 0.15355 -0.063333 0.1391 0.21648 0.62589 -0.10769 -0.036908 0.5392 0.10288 -0.22222 0.018197 -0.15545 -0.10064 0.5412 -0.49032 0.24027 0.099525 0.080817 0.14137 -0.0021914 -0.32646 -0.22709 0.20476 -0.0085315 -0.0056915 0.277 -0.081657 -0.075309 0.11987 0.42531 -0.22801 0.029261 -0.16114 0.05431 0.17258 -0.10499 -0.19416 0.34781 0.22647 -0.27635 0.33203 0.18669 0.27309 0.32523 0.33029 0.29683 -0.24338 0.22298 0.070893 0.41179 0.053859 0.019331 0.053415 -0.1857 -0.14427 -0.048845 -0.37436 -0.18501 -0.1293 0.12638 0.051261 0.0096308 0.32151 0.024242 -0.055879 0.20446 0.18875 -0.060065 -0.14438 0.034998 -0.20661 -0.28817 0.31513 -0.062358 0.079819 -0.4157 0.53722 0.31967 -0.035022 0.011352 -0.30345 0.20607 -0.51615 0.31873 0.04044 0.63268 -0.071382 -0.51444 0.034794 0.25412 -0.65638 -0.36269 0.22429 0.032849 0.22682 0.42434 -0.16011 -0.11739 0.019142 -0.12191 0.39394 -0.64099 0.0010947 0.19663 -0.12875 -0.046008 -0.11206 0.29879 0.021683 -0.23807 -0.048222 -0.42882 -0.24903 -0.1252 -0.34732 -0.049479 -0.079225 -0.085041 0.091576 -0.10808 -0.54487 0.19163 -0.13753 0.22257 0.091961 -0.20993 -0.1612 -0.12491 -0.0038135 0.14662 0.18825 -0.034306 -0.21215 0.33007 0.28117 0.070332 0.21152 -0.16706 0.31781 -0.24696 0.45219 0.083613 -0.085914 -0.07153 0.017842 0.42281 -0.12074 -0.034463 -0.34652 -0.25177 -0.3504 0.31887 0.20585 -0.10883 -0.593 -0.27298 0.30888 -0.076511 0.021708 -0.55106 0.36811 -0.086076 0.0057928 0.19256 0.73171 -0.26114 -0.086465 -0.066147 0.10435 0.42924 0.095794 0.37313 -0.3354 -0.12679 0.43119 -0.31481 0.44091 -0.015168 0.089667 -0.0092609 -0.42068 0.086175 -0.018581 -0.20917 
art 0.08279 -0.34597 -0.079023 -0.080361 0.0055156 0.6663 0.22154 -0.26876 -0.2988 0.45038 0.010173 0.21483 0.17559 -0.38863 0.091369 -0.2439 -0.0043807 0.12536 0.078584 0.47177 0.23726 0.59791 -0.20863 -0.28737 0.079753 -0.33985 -0.063076 0.28392 0.031223 0.022002 -0.091508 0.35497 -0.18042 0.15271 0.080861 0.063688 0.0021968 -0.4065 -0.045483 0.0073868 0.27797 -0.38537 0.43042 0.011618 -0.10198 -0.1762 -0.42226 -0.31932 -0.18573 -0.010272 -0.20166 0.48446 -0.10556 -0.22528 0.1003 -0.058037 0.13235 0.057899 -0.20887 0.14753 -0.080559 -0.0057851 0.10146 0.0057845 0.092441 -0.032862 -0.029087 0.070303 0.093658 0.17771 -0.69891 0.054284 -0.090706 0.52469 0.0821 -0.36396 0.21951 -0.07076 -0.12824 -0.1368 -0.41917 0.092613 0.18629 0.088735 -0.1771 -0.0065694 0.062679 -0.25645 0.12721 0.10062 0.071435 -0.015133 0.36955 -0.31032 0.32828 0.0038276 -0.023079 0.0012027 0.15682 -0.008164 0.011562 -0.1915 0.01904 -0.13063 -0.18128 -0.16948 -0.25488 -0.1377 -0.20787 0.14829 0.10186 0.10125 0.09339 -0.23779 -0.032261 -0.36406 0.11319 -0.0025345 -0.48465 -0.012933 0.34899 0.13917 0.017297 0.22202 -0.039859 0.13803 -0.25938 -0.051364 0.11031 0.21245 0.038713 -0.16237 0.21485 0.073334 0.15422 -0.030152 -0.22647 -0.21574 -0.043415 0.055349 0.11393 0.074344 0.20156 0.16625 0.18444 0.18233 0.39566 -0.073178 -0.04339 -0.0028221 0.11577 -0.086029 0.20002 -0.076687 -0.47479 0.069982 -0.067832 -0.33102 0.13899 0.093889 -0.1299 0.17267 0.010341 -0.086204 0.68963 0.50426 0.16791 -0.00080615 0.59334 -0.075551 -0.2801 -0.64322 -0.48926 -0.19888 0.024487 -0.12128 0.01863 -0.0047125 -0.23649 0.26118 0.14411 -0.43551 0.32535 -0.21736 -0.0030827 0.10067 0.14891 -0.071911 -0.010534 0.2625 -0.07301 0.038404 0.097126 0.0054118 0.055706 -0.056691 -0.46358 0.36849 -0.38153 -0.074918 0.012828 0.082172 0.10359 -0.33916 0.088433 -0.33677 -0.34583 -0.057965 -0.080596 0.029695 0.50985 -0.065432 0.33433 -0.24668 -0.4818 0.16945 -0.033299 -0.20318 -0.45755 0.14803 0.17401 0.014069 -0.61121 -0.050413 -0.43447 0.11656 0.12964 -0.1106 0.075105 0.095554 0.25813 0.10648 -0.11187 -0.24807 -0.018668 -0.28379 -0.13469 0.030109 -0.30137 0.0062996 -0.1144 0.21466 0.020207 -0.044458 0.25404 -0.058151 0.16339 0.25958 -0.29978 -0.17972 -0.028672 -0.094979 -0.25676 -0.4993 0.081946 -0.18433 -0.11783 -0.46668 0.25023 0.29718 -0.35612 -0.21012 0.30095 -0.12188 -0.24271 -0.055788 -0.16106 -0.26351 0.22958 -0.061742 0.27468 0.11406 -0.17182 0.39103 -0.055569 -0.22745 0.13391 0.26003 0.29522 0.30028 -0.22956 0.17208 -0.15573 0.24265 0.17017 0.036967 -0.04913 0.27352 -0.25589 0.0059574 -0.20581 -0.027848 0.20704 0.093683 0.098083 -0.38195 0.040046 0.086453 -0.0015828 0.030225 
artery 0.36194 -0.092553 0.12473 0.13364 -0.16888 -0.21774 0.35865 -0.44537 -0.33435 -0.46562 -0.031834 0.18684 -0.5227 -0.10387 -0.22176 -0.30627 0.08117 -0.15536 0.015517 0.81622 0.14696 0.49641 0.28363 -0.31378 -0.086362 0.16736 -0.41461 -0.17711 0.13363 0.093864 -0.59883 0.50937 -0.26448 -0.17802 0.13828 -0.39854 0.17963 -0.43246 0.27081 0.34569 0.41365 -0.075967 0.10286 -0.18537 -0.050667 0.26887 -0.17003 -0.85138 0.03758 -0.13587 -0.18055 0.23931 -0.48017 -0.028788 -0.14606 -0.094344 0.078807 -0.24783 0.049066 0.14758 -0.10182 -0.29919 0.33136 0.41506 -0.02648 -0.11827 -0.64588 0.30299 0.23616 0.15002 0.37926 -0.28245 0.13453 0.039993 0.030901 0.2686 0.1469 0.97449 0.034604 -0.38829 -0.34209 -0.40326 -0.30207 -0.080562 -0.58643 -0.13638 -0.07986 0.27976 -0.25071 -0.56154 -0.14409 -0.55053 0.20683 -0.026163 -0.20878 -0.16337 0.36986 -0.15807 0.064215 0.56386 0.072884 -0.52093 -0.15644 -0.22708 0.38571 0.62946 -0.33299 0.28536 0.39292 0.019758 0.054584 0.51129 0.015023 0.11151 0.080908 -0.3161 0.11374 0.14802 -0.41365 -0.18838 0.37965 -0.040965 -0.28083 0.5681 0.096922 0.5807 -0.33718 0.22541 0.22922 -0.0060628 -0.08374 0.37446 -0.19336 0.2562 0.084441 0.12859 -0.20948 -0.079787 -0.72733 0.50085 -0.2877 -0.20261 0.15658 -0.23787 -0.2322 -0.15131 0.40286 0.60478 -0.35526 0.37067 0.23053 -0.04636 -0.24479 -0.20873 -0.069576 -0.13891 0.10786 0.2784 0.16619 -0.32565 0.24528 -0.026537 -0.033614 0.3132 0.51693 -0.0099802 -0.41908 0.026212 -0.16087 0.74072 -0.25167 -0.75578 -0.5611 0.17076 -0.5172 0.23339 -0.21852 -0.19681 -0.18331 -0.073979 0.43644 -0.31896 -0.25678 -0.031124 0.08513 0.87049 -0.40084 -0.34828 0.21512 0.016588 0.12325 0.2322 0.23731 0.51227 -0.27262 -0.16288 0.044089 0.73285 -0.41269 -0.24854 -0.017318 0.089583 0.065122 0.14939 0.304 0.059673 0.15617 0.78554 -0.029025 -0.73164 -0.011533 -0.25485 0.30962 -0.034644 0.11996 0.10099 0.076856 -0.87477 -0.01002 -0.084121 -0.34647 0.2254 -0.025052 0.12429 0.1971 -0.043114 0.035253 -0.46895 0.30565 -0.32364 -0.23077 0.18103 -0.58977 -0.14012 0.039665 0.25 -0.12413 0.32323 -0.22165 0.40151 0.56112 -0.1026 -0.46789 -0.40012 -0.43609 0.39272 0.041507 -0.052465 -0.036319 -0.32226 -0.15208 0.0039998 0.0054241 0.15408 -0.32877 -0.096454 -0.21271 -0.20864 0.13505 0.29802 0.21155 0.69328 -0.068092 0.052067 -0.30031 -0.41849 -0.40259 0.37001 -0.055932 0.092066 -0.36573 -0.20556 -0.32293 0.07106 -0.49414 0.012465 0.093906 0.17457 0.38558 0.2645 0.097085 -0.4146 -0.22949 -0.10151 0.26102 -0.076452 0.030173 -0.29137 -0.39771 0.15154 -0.081305 0.4978 0.21778 -0.24456 -0.44166 0.23788 0.20994 0.58 -0.17166 -0.052715 
article -0.19484 -0.25781 0.074734 0.30936 -0.53333 -0.0034507 -0.28408 -0.47139 -0.17259 0.22078 0.09638 -0.22501 -0.065097 -0.098619 -0.012249 0.022184 0.025968 0.032922 0.084835 0.27744 0.00091942 0.23558 -0.06804 -0.049127 -0.028252 -0.39203 -0.1491 0.087022 0.36411 0.1768 0.0089704 -0.032694 0.017095 -0.0098417 -0.24813 -0.26272 -0.18639 0.11959 0.029033 -0.03187 -0.11867 -0.1965 -0.1604 0.0023741 0.18885 0.1208 0.055996 0.013848 0.39589 0.02607 0.32613 -0.27385 0.018989 -0.34079 -0.058834 0.070535 0.15765 -0.10814 -0.051752 0.068703 -0.0095383 0.3158 0.20771 0.095202 0.11373 -0.10667 0.10264 0.10504 0.22054 0.45565 0.19923 0.16751 0.028213 -0.12735 -0.14315 0.30489 0.21292 0.26121 -0.039596 0.13928 0.018696 0.36006 0.072499 -0.06338 0.38003 -0.14603 0.096935 -0.14983 -0.2022 -0.074128 0.08466 -0.069311 0.41959 -0.3692 0.13002 0.24023 0.15886 0.10486 0.083816 0.13714 0.058838 -0.44467 -0.093306 -0.012809 0.17936 0.23484 -0.21756 0.2205 0.13487 -0.048228 -0.43393 0.086656 0.02845 -0.0085932 0.16434 0.06756 0.23218 0.18332 -0.24891 0.034271 0.16093 0.28803 -0.03991 0.27858 0.14747 -0.074353 -0.078871 0.00018347 -0.00036125 0.13404 -0.038196 -0.10961 -0.023934 -0.20332 0.40041 0.26847 0.0649 0.15972 0.18134 0.53718 -0.2789 0.067847 0.28451 0.40038 0.051849 -0.11576 -0.0092854 0.43677 -0.20447 0.14346 0.16025 0.086152 0.48021 -0.2154 -0.23707 0.11371 -0.13944 -0.22741 0.31112 0.31751 -0.29874 0.59812 -0.22178 -0.18312 -0.074338 -0.35878 -0.0098884 -0.31093 0.23022 0.20448 -0.027582 -0.12797 -0.50302 -0.48345 -0.22991 0.23783 -0.32716 -0.16809 0.047807 0.050296 0.072429 0.16673 0.17296 0.22192 -0.42374 0.22401 0.3367 -0.28626 0.089167 0.30315 0.055827 -0.13332 0.16523 0.048936 0.013083 -0.36118 0.10012 0.025067 -0.5666 0.25612 0.10768 0.2433 0.13216 -0.091741 0.10924 -0.046029 -0.11008 -0.0096815 0.32672 0.13611 0.27605 -0.10756 0.27409 0.0018144 0.19602 -0.16108 0.22975 -0.25049 -0.052558 0.041897 -0.23199 0.05082 -0.16273 -0.195 0.1977 0.26203 -0.29299 -0.21003 -0.39179 -0.17639 0.2725 0.25077 -0.099151 -0.022226 -0.15606 0.057715 0.014136 -0.13818 -0.044941 -0.14227 0.039767 0.19135 0.7054 0.19974 0.27798 0.2819 0.30613 0.17933 -0.009568 -0.040708 0.24513 0.017751 -0.148 0.21938 0.11571 0.0084443 0.04122 -0.2741 0.12807 -0.18353 0.1816 0.30425 -0.10774 -0.071343 -0.080759 0.076705 -0.062214 0.25458 -0.28547 -0.20451 -0.064648 -0.34806 0.3093 0.11256 -0.045614 -0.11817 0.18528 0.11909 0.0025721 -0.16799 0.15081 0.21093 -0.046395 -0.28173 0.091904 -0.51839 0.14852 0.22094 -0.053831 0.074354 0.18546 0.17312 -0.22201 -0.17973 0.23097 -0.06359 -0.083247 0.2875 0.10027 0.095852 
audio 0.14667 -0.22289 0.083784 -0.14636 0.18074 0.036291 -0.090851 -0.16623 0.05911 -0.19847 0.17223 -0.10107 -0.092305 0.18476 0.40165 0.12718 0.76213 -0.0019811 0.23924 -0.23237 -0.18738 0.33622 0.017931 0.080818 -0.079667 -0.28752 -0.31714 -0.019883 0.27836 -0.080897 -0.41891 0.15098 -0.36682 -0.052811 0.14679 -0.020203 -0.25581 -0.21936 0.1681 -0.43794 0.036677 -0.52873 -0.056923 0.0049403 -0.46383 -0.38135 -0.012303 -0.56535 0.76719 0.12187 0.039865 0.29679 0.18618 0.26587 0.10759 -0.032844 0.31905 -0.17314 -0.016167 0.0076013 -0.069629 0.54372 -0.1714 0.29278 -0.1798 -0.15141 0.082079 0.0052643 -0.047044 0.26785 0.43955 -0.27572 0.19254 0.1898 0.073955 0.13296 0.19188 -0.15569 -0.34051 -0.082311 0.26096 0.22223 -0.27091 -0.1513 0.17641 -0.23908 0.084749 -0.27191 0.16406 -0.014687 0.05264 0.19143 0.32172 -0.4148 -0.0047067 0.10518 -0.059422 -0.18837 0.069507 0.032428 0.042003 -0.44271 0.54875 0.042407 0.041193 0.28088 -0.24756 -0.095031 0.068469 -0.053516 -0.016989 -0.0080971 -0.50352 -0.12395 -0.12811 -0.1305 0.1563 0.058587 -0.15851 0.11279 0.062843 0.13255 -0.15944 0.6216 -0.3126 0.061182 0.5055 -0.19249 0.34137 0.816 -0.11767 0.075318 -0.075505 0.1781 0.27975 0.6501 -0.36964 -0.018918 0.26911 0.075083 0.37849 -0.00060965 -0.19523 -0.15586 0.020649 0.26722 -0.009343 0.014849 0.31453 -0.50916 0.64439 -0.23516 -0.32862 0.062139 0.39845 -0.1534 0.34293 -0.096654 -0.29664 -0.067452 0.32075 -0.023818 -0.20709 0.14674 0.075642 0.20825 -0.12362 0.16753 -0.015935 -0.037169 -0.14475 -0.29015 -0.20202 -0.0083836 -0.16868 0.15682 -0.28817 -0.29324 0.27488 -0.13668 0.034265 0.27764 0.038553 0.13523 0.20713 0.49413 0.13987 -0.30122 0.10696 0.2596 -0.16709 -0.30674 0.41817 -0.1038 -0.27842 -0.21416 -0.35929 -0.3931 -0.30779 -0.47417 0.25584 -0.45351 0.12982 0.16866 -0.074092 0.014135 -0.24538 0.39049 0.37296 0.085848 0.2718 0.013812 0.12089 -0.25255 -0.29373 -0.011341 -0.031123 -0.89957 -0.2752 0.021751 0.15814 -0.45001 -0.37457 0.75844 -0.022325 0.23106 -0.068664 -0.34033 -0.20213 0.13615 -0.18302 0.086295 -0.10652 -0.55925 -0.12738 -0.1178 0.040912 0.049186 -0.16335 -0.069595 0.2229 -0.14223 -0.16727 -0.087715 0.066819 -0.066859 0.052498 0.30656 -0.21347 0.38228 -0.029384 0.13799 -0.32718 0.14588 -0.14249 -0.054288 0.67138 -0.2699 0.039753 0.21307 0.11745 0.39379 0.00059206 -0.10033 -0.47644 -0.013271 -0.55254 -0.10256 0.24038 -0.10334 0.0092268 0.052139 0.28867 0.20836 -0.14222 -0.5518 0.25566 0.41156 0.097287 -0.16648 0.15049 0.30251 0.22396 -0.19164 0.11403 0.12072 -0.26289 0.38524 -0.2687 -0.18963 0.088781 0.075792 0.32929 -0.50864 0.40898 -0.58625 -0.12693 0.429 -0.061769 0.085724 
bibliography -0.075132 0.080542 0.22364 0.4023 -0.56321 0.25551 -0.028193 -0.01784 0.32446 0.17706 0.36019 0.34014 -0.3705 0.36914 0.233 -0.06115 -0.021427 0.19103 -0.33089 0.10608 -0.50286 0.65103 0.0079909 -0.11544 -0.65138 -0.25548 -0.16794 -0.35031 0.39376 -0.01294 -0.15344 0.73038 -0.10791 0.023727 0.28011 -0.26293 -0.51775 -0.095226 0.68161 0.063723 0.20937 0.082106 0.38678 0.229 -0.30694 -0.57896 0.046946 -0.079264 0.32706 -0.26309 0.30479 -0.15209 0.069983 -0.28272 -0.20931 -0.42124 -0.0534 -0.3411 -0.14875 0.20056 -0.42061 -0.51734 -0.41522 0.086594 -0.041613 0.73301 0.22243 -0.24657 -0.098341 -0.09942 0.045118 -0.0039536 0.28048 0.38891 0.24526 -0.15953 0.47833 -0.037785 0.098192 0.27969 -0.087138 0.55918 -0.30943 0.027156 -0.034425 -0.065162 0.31229 -0.81337 -0.24818 0.29867 -0.13981 0.083984 0.0061909 -0.49714 0.12161 0.038678 0.1636 -0.27866 0.33003 0.26784 0.16065 -0.26116 -0.24196 -0.42859 0.60637 -0.12929 0.061562 0.19019 0.31754 -0.21827 0.37129 -0.022878 -0.032557 -0.16552 -0.071987 0.1248 0.11859 0.061655 0.1835 0.1186 0.64156 -0.23749 -0.23009 -0.18017 0.37479 0.069324 -0.083538 -0.10853 -0.2536 -0.33761 -0.082517 -0.35618 -0.022647 0.062395 0.0063175 0.5423 -0.12903 -0.13263 0.30328 0.38918 0.23199 0.19775 0.55028 -0.27378 0.010455 0.096029 -0.25406 -0.10108 -0.42289 0.12353 0.72353 -0.42622 0.35268 -0.41958 -0.089579 0.78042 -0.19068 -0.34667 0.26695 0.37737 -0.4272 0.21406 -0.32694 -0.29279 0.23376 0.20208 -0.084894 -0.25363 0.29797 0.040327 -0.42132 -0.046731 -0.012257 -0.35346 -0.40569 0.45285 -0.22167 0.28037 -0.24637 0.25827 -0.34494 0.16212 0.36375 -0.07251 -0.36767 0.050392 0.0024782 -0.053272 0.76417 0.45779 0.81711 -0.082541 0.5248 0.12151 -0.033075 0.26154 0.088825 -0.35241 -0.56915 -0.094978 0.39153 0.33803 -0.38962 -0.024219 0.17029 -0.35179 0.27186 0.17536 0.81023 0.73312 0.31719 -0.032064 0.56541 -0.08702 0.65914 0.028585 -0.46646 -0.12855 -0.16232 0.09087 -0.56402 -0.27749 -0.38327 -0.092984 -0.51243 0.20389 0.15614 -0.54699 -0.42209 0.42627 0.23504 0.12698 0.034912 -0.037272 -0.06472 0.87388 0.2081 -0.24064 0.24516 -0.083565 -0.18962 0.40856 0.1866 -0.50364 -0.3008 -0.10373 0.2507 0.35022 -0.23939 -0.023646 0.36145 -0.31452 -0.37826 0.2538 0.29133 -0.18028 0.18215 -0.19251 0.10487 -0.17803 -0.15012 0.050339 0.19929 0.11143 -0.31347 0.22678 0.17912 0.029941 0.17195 0.42857 0.54695 -0.31592 0.27515 -0.14076 0.95114 -0.21518 -0.22054 0.33564 -0.080944 0.22034 0.27587 0.38428 0.56454 0.23409 -0.12759 -0.097729 -0.38417 -0.016117 0.027906 -0.091471 0.066498 0.11361 0.075518 -0.037798 -0.33448 -0.36487 -0.056934 -0.3095 0.043825 0.2457 
bibliothek 0.26843 -0.10654 0.36672 -0.20042 0.0937 0.14601 -0.022764 -0.048725 0.10363 0.10937 -0.17214 0.26268 -0.22661 0.10484 -0.28382 -0.82107 0.35739 0.2233 0.24512 0.33319 -0.18288 0.65613 -0.31646 0.13848 -0.18054 -0.12016 -0.31953 -0.05286 0.36956 0.66348 -0.46529 0.68857 -0.14611 0.47493 -0.023939 -0.57072 -0.059736 -0.41673 0.10529 0.014864 0.68703 0.12442 -0.0094891 0.34871 -0.1062 -0.27858 -0.059407 0.34629 0.27404 -0.020515 0.038629 -0.48972 0.18687 -0.23476 -0.15041 -0.49629 0.36119 -0.50357 -0.26089 0.31092 0.0024418 -0.1306 0.23553 -0.049611 0.38352 -0.13748 0.66911 0.017935 -0.30427 0.16835 0.33809 0.26292 -0.0086535 0.52411 -0.27469 0.52816 0.35955 0.30971 -0.25701 -0.46999 0.18773 0.44576 -0.078621 0.17493 -0.26246 -0.33283 0.19635 -0.55589 -0.13335 0.081234 0.39634 -0.37542 -0.89706 -0.54117 -0.50478 0.17316 -0.52675 0.26057 0.29433 -0.064757 -0.35697 -0.033288 0.071105 -0.24696 0.81723 -0.32007 0.4412 -0.5925 0.030944 -0.0067371 -0.44473 -0.55576 -0.23526 -0.17106 0.00065244 -0.40778 -0.10258 0.076063 -0.11515 0.30732 0.58278 0.021245 -0.61315 0.46861 -0.24447 0.17802 -0.058314 0.27098 0.099838 0.48337 -0.53297 -0.20052 -0.043297 -0.76027 0.50616 -0.27189 -0.058407 -0.52623 -0.076062 0.9275 0.12404 0.050939 -0.13222 0.23162 0.13175 0.27274 0.39643 -0.26162 0.040224 0.32314 0.30931 -0.021015 -0.17251 -0.27591 -0.16081 0.0588 0.25177 -0.31742 -0.43665 0.38914 0.098088 1.0629 0.064021 -0.21372 -0.020356 0.09313 0.050363 0.19084 -0.06259 -0.1226 -0.071316 0.1084 -0.30985 0.011212 -0.074686 0.02046 -0.22072 -0.016124 0.18951 -0.39482 -0.74479 -0.7315 0.3144 -0.73784 -0.20791 0.03932 0.18632 -0.24957 1.1176 -0.21666 0.74584 -0.13329 0.1564 0.039225 -0.25203 -0.53399 -0.307 0.28159 -0.1312 -0.43255 0.67688 0.58337 0.17866 -0.099915 0.19259 -0.81527 0.35478 -0.33163 -0.071618 0.020674 0.14583 -0.047295 0.50979 -0.24774 -0.33838 0.23727 -0.51317 -0.6255 0.03025 -0.43606 -0.31055 0.019256 -0.44168 0.017939 -0.47231 0.26528 0.3066 -0.55427 0.60426 -0.044024 0.85365 0.10482 -0.38716 -0.21234 0.48598 0.49572 0.40543 -0.28521 -0.070562 -0.068581 -0.08007 0.3509 0.43725 -0.60943 -0.058679 -0.65824 0.78435 0.43624 -0.54892 -0.55277 0.60662 0.69151 -0.59208 0.048558 -0.19112 0.17724 0.37896 -0.63786 -0.4422 -0.41057 -0.52749 0.85785 0.22011 0.63806 -0.54228 0.25418 -0.035637 -0.46648 -0.10037 -0.001674 -0.07066 0.36703 0.60501 0.18333 0.22682 -0.86578 -0.19841 1.1106 0.55196 -0.18671 0.50507 -0.062416 -0.21662 0.47497 -0.38208 0.24676 -0.51606 0.24507 0.32099 0.28165 -0.28746 -0.14244 0.2622 0.044222 0.29746 -0.27768 -0.43822 -0.16326 0.49759 -0.26743 
blog 0.017568 -0.16854 0.1036 0.18075 -0.17604 0.13002 -0.21156 -0.31251 -0.079335 0.017703 -0.016897 -0.030906 0.24888 -0.13431 0.2163 -0.022705 0.048769 0.24873 0.1987 0.38543 -0.21253 0.12585 0.13195 -0.36471 0.14763 -0.22238 -0.13559 -0.075815 0.073035 0.045049 -0.14177 -0.12385 -0.21482 -0.18276 -0.11896 -0.001981 -0.31394 0.46794 -0.1967 -0.19035 -0.11401 -0.28122 -0.0011891 0.28358 -0.047345 0.42456 -0.12814 -0.48881 0.1612 -0.11444 0.13953 -0.20692 0.32531 -0.51003 0.010973 -0.14821 0.030793 -0.099082 0.19509 0.024629 0.3665 0.12727 -0.024443 0.101 -0.20472 -0.14361 0.2226 0.38919 -0.078291 0.10962 0.26831 -0.19574 0.28879 0.12258 -0.26651 -0.29274 0.13536 0.21926 -0.36895 0.11525 -0.31253 0.32985 0.18035 -0.13948 0.19194 -0.23959 -0.4136 -0.00096604 -0.10155 0.044287 0.28986 -0.22091 0.35927 -0.12362 0.25857 0.39015 -0.14797 -0.07152 0.064394 -0.034477 0.21338 -0.24186 0.15892 0.11749 0.059483 0.24595 -0.41205 0.26753 0.33279 -0.053414 -0.082839 0.038412 0.045397 0.0089203 -0.30059 0.22294 0.38316 0.11781 -0.32291 0.25459 0.38756 0.31579 0.30283 0.32532 -0.27823 0.041328 0.060392 -0.116 -0.11248 0.10724 0.072126 -0.094648 0.24422 -0.19121 0.33721 -0.019021 -0.36798 0.23853 0.24701 0.17572 -0.12833 0.50291 0.39061 -0.039001 0.063715 0.15271 0.48702 0.093866 0.094307 -0.45606 0.018679 -0.33211 0.049312 0.37839 -0.092274 -0.024426 -0.22272 -0.33818 0.035511 0.055824 0.30418 0.038688 -0.30299 -0.0037769 0.18946 0.44929 -0.098224 -0.11576 -0.02459 -0.20681 0.19385 -0.07963 -0.36452 -0.075753 -0.11914 0.14265 -0.50528 0.14822 -0.040402 -0.018778 -0.081205 0.39079 0.52057 0.28548 -0.22598 0.43829 0.15408 -0.34649 0.30058 -0.0089461 0.28963 -0.30432 0.58942 -0.23186 -0.2718 0.14841 -0.42715 0.10893 -0.28219 -0.13012 0.5517 0.33059 -0.19498 -0.30996 0.074899 -0.028263 0.178 0.27625 -0.030583 -0.3651 0.62199 -0.16311 -0.088879 0.19653 0.24393 0.15314 0.17035 -0.021386 0.050965 0.027991 -0.20408 -0.2335 -0.092422 -0.3623 -0.22098 -0.02971 -0.20128 -0.25737 -0.17701 0.20251 -0.071803 -0.41376 -0.53087 -0.071272 0.12709 -0.088876 0.18833 0.09391 -0.14903 -0.44905 0.026664 -0.016124 0.1392 0.1465 0.0036018 0.11835 0.26054 0.23735 -0.2569 0.20821 0.082898 -0.23072 -0.30263 0.023376 0.38265 -0.008863 0.074521 -0.36879 -0.12383 0.27081 0.58349 -0.0070113 0.3156 -0.019986 -0.70358 0.23982 0.19273 0.27051 -0.28673 -0.27526 -0.022573 0.079144 0.56965 0.21817 -0.11259 0.028539 0.029823 0.45523 0.017727 -0.075508 -0.014153 -0.25721 -0.19434 -0.10627 0.37014 -0.25561 0.050151 -0.079033 0.3878 0.0044139 0.1123 0.041706 -0.29631 -0.36965 -0.01377 0.044431 0.14847 -0.045878 0.32788 0.071758 
blogging 0.10914 -0.19432 -0.062819 0.50528 -0.20801 -0.096916 0.11948 -0.321 -0.13035 0.089931 0.10571 -0.030812 0.36014 -0.17757 0.14163 -0.0647 -0.086034 0.34007 0.13635 0.58734 -0.26354 -0.045361 0.42623 -0.33124 -0.045206 -0.30518 -0.10552 -0.030764 0.30875 0.026798 -0.30267 -0.11596 -0.30847 -0.24286 -0.14457 -0.059417 -0.13849 0.50817 0.0022252 -0.24279 -0.29215 -0.32009 -0.024078 -0.02294 0.14008 0.41886 -0.12339 -0.29893 0.24592 -0.39147 0.068368 0.061714 0.50649 -0.2395 -0.28735 -0.18205 -0.054757 -0.23673 0.29644 -0.028217 0.25826 0.30518 0.21377 -0.14506 -0.15405 0.027046 0.13743 0.48721 -0.18989 0.19999 0.053613 0.095833 0.35945 -0.061809 0.098815 -0.006304 0.11248 -0.038556 -0.32235 0.085553 0.0077625 0.14549 0.035948 -0.02976 0.35701 -0.33708 -0.32393 0.12966 0.035131 -0.024701 0.16718 -0.054663 0.83812 -0.14891 0.19549 0.00099639 -0.39863 0.074809 -0.072388 -0.040701 0.34787 -0.10207 0.47134 0.15467 -0.30487 0.24237 -0.40193 0.50196 0.022888 0.074618 -0.33801 0.043478 0.021758 -0.25588 -0.12404 -0.0011905 0.56408 -0.099698 -0.45964 0.15495 0.034871 0.053228 0.10878 -0.090799 -0.15605 -0.23385 0.041914 -0.28603 0.039251 0.080392 0.069221 0.057289 0.056183 -0.35494 0.33546 0.26245 -0.58866 0.19678 0.39218 0.18227 -0.18431 0.45301 0.29975 -0.17384 -0.080072 0.21192 0.27194 -0.16368 0.42022 -0.24466 0.27338 -0.20053 -0.15894 0.17924 -0.11963 -0.16408 -0.029056 -0.19273 0.12549 -0.064945 0.13541 0.13929 -0.060663 0.13488 0.29971 0.48405 0.12053 -0.53688 -0.19982 -0.21802 0.043998 -0.058826 -0.41142 -0.11417 -0.27798 0.30582 -0.37192 0.27192 0.030829 -0.13 0.18896 0.29214 0.031307 0.14798 0.077463 0.51491 0.25547 -0.20825 0.3265 -0.14088 0.001977 -0.44419 0.50188 -0.2805 -0.28959 0.0849 -0.31258 -0.056572 -0.21405 -0.10797 0.6117 0.45859 -0.12515 -0.51153 0.154 0.083228 -0.0011971 -0.034584 -0.13736 -0.011121 0.52333 0.034556 -0.085036 0.21041 0.1498 -0.0094837 0.2012 0.043571 -0.24932 -0.02159 0.0066794 -0.16417 -0.46402 -0.39824 -0.2194 -0.024905 0.13597 -0.17827 -0.13384 0.031212 -0.27664 -0.47554 -0.19474 -0.040202 -0.00071654 -0.066466 0.30127 -0.036807 -0.069329 -0.21006 0.31566 0.10202 -0.059682 0.17648 0.086377 -0.051261 -0.085874 0.13622 -0.142 -0.26696 -0.00090228 -0.37292 -0.36041 -0.23164 0.064886 -0.057734 0.14907 -0.62369 0.1954 0.20629 0.35637 0.10204 0.0065597 -0.071291 -0.63168 0.17236 -0.099483 -0.0057622 -0.15809 -0.16986 -0.24363 -0.025244 0.48771 0.35208 -0.038233 0.20206 0.090263 0.28913 -0.014892 -0.0069625 0.21772 -0.11546 -0.39139 -0.13932 0.30734 0.036863 -0.098383 0.18983 0.31674 0.34757 -0.053977 0.099326 -0.14302 -0.71148 0.11112 0.10823 0.19579 0.24919 0.45883 0.0005026 
blogs 0.071369 -0.14729 0.13682 0.51264 -0.058164 0.026771 0.010374 -0.39043 -0.16102 0.26423 -0.042791 0.090506 0.055643 -0.068995 0.021479 -0.32123 -0.0059423 0.42297 -0.013483 0.2111 -0.22486 0.065305 0.15508 -0.080958 0.15846 -0.21349 -0.28365 -0.32592 0.1841 0.23499 -0.17642 0.031386 -0.19959 -0.35531 -0.20565 0.22899 -0.24235 0.58098 0.0069673 -0.43119 -0.39192 -0.082914 0.31274 0.042189 -0.12253 0.46681 -0.16815 -0.56567 0.31944 -0.32548 0.14689 -0.23942 0.44924 -0.25981 -0.31707 0.052918 -0.086874 -0.13828 0.024768 0.22978 0.10857 0.10294 0.43542 0.034832 -0.18983 -0.079758 0.29471 0.29205 -0.19208 0.13271 0.16708 -0.27924 0.24606 -0.12703 -0.24101 0.13742 0.23213 0.1152 -0.18763 0.10163 -0.55856 0.15913 0.044113 0.018923 0.40681 -0.51648 -0.252 -0.018318 0.093374 0.01802 0.2727 -0.39184 0.65539 -0.21278 0.34434 0.28088 -0.33803 -0.028728 0.026178 0.084246 0.31146 -0.11962 0.30762 -0.14559 -0.15106 0.38371 -0.4066 0.16602 0.28043 -0.17949 -0.46356 0.23749 -0.15556 -0.14202 -0.096044 0.28912 0.53972 0.1196 -0.41854 0.18471 0.29705 0.2339 0.060677 0.30683 -0.30664 -0.34277 0.15307 -0.26022 -0.012877 -0.068673 0.16465 -0.47785 0.0072152 -0.06624 0.53523 0.14723 -0.46366 0.33153 0.53152 0.36723 -0.11163 0.48118 0.33034 -0.35853 0.040282 0.017728 0.44227 0.020668 -0.16858 -0.36427 0.27559 -0.55681 0.062168 0.3649 0.086792 -0.032302 0.05397 0.039003 0.24221 0.029132 -0.010508 0.22379 0.14794 -0.0017872 -0.022536 0.68756 0.14841 -0.40552 0.20411 -0.22541 0.031703 -0.0046326 -0.5312 0.055456 -0.11568 0.10929 -0.47579 0.064074 0.062813 0.15371 -0.094242 0.49008 0.56285 0.15498 -0.31299 0.45318 0.34573 -0.29639 0.33863 -0.1489 0.29395 -0.24318 0.58556 -0.38407 -0.39439 0.13087 -0.34308 0.095483 -0.1152 -0.12912 0.54185 0.30167 0.017223 -0.26549 0.38453 0.046151 -0.0094416 0.38259 -0.15709 -0.39036 0.57641 -0.10696 0.15624 0.057505 -0.01636 -0.094117 0.071065 -0.16675 -0.018104 0.015501 0.04553 0.0047843 -0.017151 -0.47679 -0.28182 -0.115 -0.20176 -0.15393 -0.18246 0.11726 -0.41637 -0.38406 -0.11042 -0.21299 0.075679 -0.056877 0.05957 -0.13951 -0.055349 -0.49146 0.26978 0.23586 -0.013095 -0.013539 -0.27026 0.14819 0.19643 0.29898 -0.24221 -0.14142 0.20882 -0.34299 -0.54172 -0.22249 0.41759 0.07374 0.0075528 -0.62667 0.099051 0.082824 0.31369 -0.013704 0.15895 -0.29741 -0.88806 0.3827 0.03089 0.2913 -0.58283 -0.15263 0.044896 -0.0020806 0.50947 0.081298 -0.49443 0.34097 -0.035949 0.35366 -0.03352 -0.1249 -0.14087 0.081292 -0.53841 -0.076175 0.31027 -0.33692 0.097296 -0.086527 -0.023512 0.11373 0.046739 0.132 -0.20121 -0.42129 0.37441 0.15533 0.046689 0.030001 0.56879 -0.024005 
book -0.064063 -0.13808 -0.13325 0.30682 -0.17753 0.39585 -0.17527 0.022736 0.067858 0.56406 0.0088577 0.31354 0.080352 0.25262 -0.097894 -0.18906 0.047272 0.45327 0.15537 0.26938 -0.51783 0.21393 -0.26957 -0.18119 0.086113 -0.06 -0.18948 0.23605 0.11703 0.34908 -0.24029 -0.078357 0.094383 0.25867 0.24 -0.16979 -0.1064 0.16885 0.3217 0.22933 0.12078 -0.2625 -0.0073236 -0.10023 -0.034198 -0.014819 -0.051666 -0.1973 -0.033691 0.050582 0.28174 0.25494 0.23154 -0.20281 -0.062653 0.17029 0.077696 -0.14975 0.14847 0.072876 0.045078 0.080283 0.0099885 -0.10866 -0.1661 -0.088573 0.18904 0.090164 -0.12935 -0.17656 -0.036024 -0.06578 0.27716 -0.047946 0.14104 -0.32473 0.057722 0.029125 -0.21245 -0.077235 -0.15591 0.32411 -0.077082 -0.15757 0.06555 0.33981 0.14773 -0.056773 0.15333 0.15365 0.18045 -0.22642 0.21958 -0.22875 -0.038914 0.09469 0.061452 -0.061458 -0.074824 0.1277 0.098445 -0.25283 0.14379 0.12245 0.010246 0.22495 -0.071796 -0.019118 -0.086521 -0.01443 0.06091 -0.041676 -0.097051 -0.042759 0.069643 -0.24186 0.042678 0.070722 -0.22706 0.28067 0.024875 0.12713 -0.10615 0.26404 0.00097878 0.024052 0.052473 -0.055584 -0.047697 -0.12002 0.075294 -0.042182 0.11401 -0.089822 -0.059226 0.15519 0.19924 -0.11107 0.10338 0.23608 0.17729 0.11951 0.44384 -0.046608 -0.0085507 0.3035 0.17954 0.035994 0.00050237 0.19325 0.43798 -0.33445 -0.021109 -0.09544 0.055189 0.31316 -0.13597 -0.41835 -0.061843 0.31807 -0.13646 0.44468 -0.0804 0.12361 0.14137 0.17915 0.018475 0.075514 0.30461 0.18833 0.036327 -0.0060176 -0.258 -0.36983 0.13386 0.27232 -0.26222 0.3405 0.14383 -0.1995 0.12222 -0.04921 0.35613 0.052985 -0.21051 0.28951 0.24817 -0.17314 0.4738 0.28668 0.1974 -0.19042 0.36222 -0.068586 -0.072148 0.016051 -0.32172 -0.019831 -0.36434 -0.22029 0.12977 0.19518 0.076791 0.13015 -0.1267 0.10861 -0.007709 0.14107 0.17755 0.16689 0.55321 -0.13301 0.040216 -0.053126 0.29757 0.13364 -0.13115 -0.0018384 0.11738 0.13238 -0.35952 -0.2774 -0.17568 -0.045207 -0.37866 0.51895 0.05034 -0.16384 0.41602 0.16047 0.1346 0.077489 -0.17806 -0.31046 0.037248 -0.033552 -0.071355 -0.16906 0.065696 0.21796 0.18269 -0.055192 0.39114 -0.19631 0.19961 0.35753 0.32721 -0.11762 0.029532 -0.03938 0.21815 0.24014 -0.072259 0.24231 0.2248 0.028449 0.11513 -0.021116 0.26625 -0.18369 0.13523 0.011809 -0.15413 -0.063988 -0.2368 -0.00055129 0.054724 0.18372 0.11812 -0.075394 -0.13048 0.047246 0.18714 0.14457 0.15558 -0.41526 -0.090845 0.26959 0.2278 -0.027769 0.086925 0.11857 0.063349 0.30055 0.29626 -0.076451 0.0424 0.088733 0.17535 -0.2549 -0.11605 0.24898 0.00024951 -0.40514 -0.24818 -0.28085 -0.017992 -0.047233 0.13115 0.24964 
bookmarking 0.053514 0.31243 0.061495 0.11846 -0.20311 -0.055468 0.4637 -0.1363 -0.098721 -0.15623 -0.024153 -0.10254 0.33601 0.3394 0.38446 -0.34314 -0.020525 0.25581 0.27589 0.48758 0.070931 -0.067571 -0.057182 -0.25989 -0.50126 -0.64383 0.017607 0.30719 0.099988 0.020092 -0.39465 0.11151 0.0043261 0.070487 -0.19768 0.063494 -0.12735 0.55954 0.16304 -0.067862 -0.28921 -0.53406 0.37251 0.28952 0.050583 0.044937 0.037344 -0.33624 0.030378 -0.36478 0.076526 -0.062772 0.00903 -0.24534 -0.21309 0.35967 -0.15373 -0.50198 0.017341 0.53931 0.089913 0.020283 0.11183 -0.28488 0.11295 -0.039476 0.48668 0.23354 -0.25419 -0.065722 -0.060391 -0.042604 0.6988 -0.12937 0.10046 0.34052 0.083988 -0.045428 -0.23736 0.15113 -0.18485 0.21454 -0.13797 -0.032575 0.10508 -0.090686 0.025585 0.10159 0.12055 0.082757 0.29001 0.18375 0.3747 -0.30644 0.027771 0.23984 -0.21274 -0.152 0.00060673 0.10632 0.26116 -0.20909 0.24072 -0.10891 -0.12155 0.42087 -0.43404 0.26055 0.037192 0.053987 -0.20264 -0.12055 -0.083284 0.14719 -0.40484 0.02427 0.36443 -0.089227 -0.46561 0.30759 0.25632 -0.033422 -0.24643 0.12332 -0.088256 -0.19681 0.15581 -0.088322 0.1526 0.12755 0.0072564 -0.17577 -0.25893 -0.11946 -0.012835 0.55249 -0.40179 0.26392 0.31047 0.43935 0.16163 0.27717 0.092108 0.01694 0.026744 0.54309 0.085168 -0.18321 0.10505 -0.093206 0.49129 -0.18354 0.21119 -0.16977 0.28307 -0.20956 0.011232 -0.035082 -0.14454 0.19843 0.19906 0.46228 -0.25544 -0.28724 0.18682 0.38777 0.14543 -0.45402 0.062667 0.036196 -0.18741 -0.24576 -0.12851 0.092945 -0.50376 -0.063249 0.081185 -0.038635 0.086616 -0.16765 -0.19196 0.2337 0.29922 -0.030321 -0.099667 0.22704 0.17316 -0.19409 0.10332 -0.073256 0.24281 -0.28106 0.43825 -0.016226 -0.22168 -0.13466 0.075392 0.25097 -0.40602 0.067288 0.42009 0.45219 -0.034955 -0.30949 0.035243 -0.13472 0.0077275 -0.12771 -0.22664 -0.013097 0.58089 -0.23692 0.77526 -0.14011 0.18205 0.2153 0.32803 -0.091081 0.28048 -0.11357 -0.1344 -0.22315 -0.091042 -0.030758 -0.032387 0.36747 0.079315 -0.57508 -0.067599 0.011606 0.006128 -0.44308 -0.036056 -0.14535 -0.23376 0.024873 0.2374 -0.094611 0.18487 -0.1464 0.57798 0.41263 0.017823 -0.12184 0.026889 -0.01818 0.19295 0.15972 0.23292 -0.39874 0.32104 -0.30252 -0.19151 -0.077995 0.20641 0.16051 0.11185 -0.4592 0.22564 0.27327 0.52013 0.27093 0.032003 0.35484 -0.43095 0.081187 -0.34765 -0.44935 0.0090726 -0.050847 -0.48271 0.17906 0.080475 0.41011 0.048458 0.033541 -0.031534 0.31324 -0.11222 -0.028223 0.25163 -0.18867 -0.14256 -0.3046 -0.091785 0.024142 0.1873 0.47127 0.079924 0.15117 -0.023946 0.052042 -0.21191 -0.55705 0.42928 0.0084479 -0.34474 0.37383 0.7326 -0.29507 
bookmarks 0.14704 0.39514 0.12771 0.04548 -0.34912 0.013098 0.32098 -0.18954 -0.12184 -0.13486 0.19504 -0.021663 0.24497 0.582 0.53166 -0.39165 0.10127 0.30272 0.29529 0.19841 0.02905 0.25539 -0.10027 0.052926 -0.44295 -0.47061 0.044621 0.37933 0.10091 -0.061862 -0.2192 0.12898 0.065391 -0.034025 -0.075391 0.16093 -0.011235 0.61694 0.31214 -0.16346 -0.014521 -0.50341 0.50333 0.49228 0.017119 -0.0079582 -0.049225 -0.45132 0.012437 -0.27533 0.3182 -0.051734 -0.043357 -0.09157 -0.1186 0.48128 -0.3266 -0.49141 -0.2653 0.40171 -0.080229 0.24034 0.14869 -0.17801 0.029848 0.059269 0.4834 0.30831 -0.24369 0.082663 -0.036892 -0.010907 0.5495 -0.47137 0.26141 0.40795 0.1587 0.13703 -0.2185 0.030431 -0.13563 0.40433 -0.45321 0.28683 0.043467 0.11851 0.12817 0.082827 0.14651 0.29318 0.12406 -0.086659 0.083407 -0.03789 0.0014305 0.30954 -0.25156 -0.25526 0.060035 0.046398 0.3618 -0.14131 -0.017899 -0.0080029 0.0052395 0.36657 -0.4132 0.17103 -0.19294 0.025321 0.066095 -0.12757 0.18252 0.44605 -0.59007 0.091545 0.36042 -0.19737 -0.35233 0.50292 0.29032 0.0027842 -0.29912 0.080324 0.021385 0.0013469 0.25486 -0.087333 0.17953 0.33723 0.1381 -0.28129 -0.35333 -0.019896 -0.21535 0.51153 -0.34126 0.15391 0.079886 0.496 0.24512 0.10018 0.19893 0.055188 -0.089593 0.47577 -0.0065606 -0.3097 -0.29765 -0.15565 0.64553 -0.28178 0.24096 -0.34343 0.53844 -0.12909 0.16026 -0.044652 -0.36246 0.20747 0.27197 0.58468 -0.28921 0.014815 0.04911 0.36041 0.17783 -0.28845 0.32568 -0.078072 -0.077118 -0.31919 -0.062442 0.12249 -0.43308 0.0022462 0.4264 0.019172 0.27383 -0.089742 0.047932 0.24596 0.51077 0.0070616 -0.278 0.43119 0.082108 -0.21633 0.14387 0.013862 0.40367 -0.014762 0.32343 0.034461 -0.34268 0.038945 -0.069111 0.18943 -0.54798 -0.0079726 0.55358 0.24918 -0.017488 -0.47102 0.17367 -0.29466 -0.076761 -0.072116 -0.20285 0.048296 0.56289 -0.34615 0.77479 -0.15893 0.055791 0.20408 0.20116 -0.3666 0.38943 -0.14372 -0.34998 -0.0049249 -0.24306 -0.149 -0.13507 0.55626 -0.04446 -0.70489 -0.1385 -0.071347 0.061342 -0.31486 0.16265 -0.089341 -0.2458 -0.17377 0.20911 -0.18726 0.24972 -0.1583 0.6688 0.69934 0.2319 -0.1439 -0.14439 0.070762 0.26939 0.04862 0.1801 -0.5177 0.38263 -0.33834 -0.15665 -0.088779 0.49659 0.30691 0.31956 -0.43538 0.084837 0.27298 0.2868 -0.015403 0.136 0.30715 -0.55442 -0.080824 -0.31358 -0.32751 0.024294 -0.025442 -0.65774 0.33584 0.15295 0.34158 -0.091528 0.0077168 0.32003 0.19331 -0.0056162 0.03143 0.34578 -0.17343 -0.19511 -0.16825 -0.18603 0.025604 0.18266 0.59077 0.12127 0.22178 -0.011137 -0.015435 -0.14631 -0.52941 0.67922 0.17254 -0.69147 -0.009939 0.63973 0.048948 
books 0.030644 -0.15856 -0.24679 0.4057 -0.1787 0.51677 -0.0087539 -0.097089 0.22526 0.48615 -0.037284 0.43899 0.10181 0.24988 -0.24072 -0.17711 0.24005 0.47553 -0.082629 0.30928 -0.36069 0.32198 -0.34149 -0.24907 0.11754 -0.088736 -0.42018 -0.011894 -0.11949 0.5225 -0.14622 0.15285 0.11766 0.35706 0.48695 -0.076264 -0.23289 0.30464 0.32589 -0.0038446 0.12918 -0.36406 0.11526 0.058768 -0.087965 -0.045889 -0.20187 -0.18979 -0.020882 -0.18607 -0.0067689 0.13137 0.39281 -0.10823 -0.11043 0.029962 0.00066078 -0.21992 -0.24774 0.058162 -0.041726 0.1666 0.34857 -0.15657 0.094403 -0.017001 0.31881 0.049907 -0.12812 -0.20185 0.17064 -0.11956 0.40031 -0.11364 0.31302 -0.37225 0.25679 0.12423 0.13876 -0.087048 -0.31461 0.23511 -0.28144 -0.19021 -0.002506 0.21315 0.23452 0.0065026 0.11065 0.068247 0.11714 -0.38313 0.29564 -0.33538 -0.072348 0.34326 0.013677 -0.31624 -0.064244 0.25956 0.082231 -0.193 0.24781 -0.090385 -0.10192 0.22119 -0.10138 -0.098404 -0.0075002 0.070663 -0.064632 0.1817 -0.087043 -0.083466 -0.11737 -0.11164 0.37574 -0.14217 -0.20517 0.36132 0.058824 0.18938 -0.37892 0.15644 0.092097 -0.16436 0.19229 -0.11723 -0.23314 0.037027 0.1436 -0.15064 0.20315 -0.064512 -0.32996 0.21975 0.070337 -0.074899 -0.12896 0.26804 0.28233 -0.032248 0.54325 -0.052555 -0.0073709 0.11184 0.14732 -0.21688 -0.3178 0.21537 0.48987 -0.29467 0.052331 -0.065423 0.30969 0.074624 0.032467 -0.32238 0.18422 0.32557 -0.038686 0.62294 0.012226 0.049585 0.47498 0.27663 0.11379 0.0074873 0.36662 0.029768 0.16586 0.23029 -0.099764 -0.18912 0.12271 0.32171 0.094145 0.091461 0.34059 0.02594 -0.028773 0.057034 0.51373 -0.01874 -0.057768 0.12522 0.18508 -0.12552 0.51548 0.17238 0.32971 -0.10653 0.412 -0.22802 0.037697 0.11448 -0.3044 -0.13233 -0.12335 -0.089618 0.38758 0.080435 0.026666 -0.024365 -0.070565 -0.020463 -0.24632 -0.028344 0.18725 -0.059628 0.45077 -0.13964 0.15457 -0.065468 0.010645 -0.069697 -0.11638 -0.078105 0.15798 -0.10616 -0.26833 -0.22979 -0.25273 -0.050063 -0.47492 0.523 0.3009 -0.056618 0.41049 0.12295 0.0069521 0.25467 0.069326 -0.32374 0.36909 0.18785 -0.13775 -0.4037 -0.18072 -0.034714 0.16671 -0.0013534 0.26124 -0.28221 0.1043 0.24456 0.44659 0.10032 -0.078093 0.026351 0.43241 0.16243 -0.15302 0.29678 0.34479 0.056803 0.13373 -0.13044 0.06986 -0.18213 0.0097476 0.055867 0.1868 -0.20991 -0.35958 -0.1498 0.15849 0.077477 -0.055577 0.1317 -0.14773 -0.12548 0.2996 -0.049814 0.086129 -0.17908 0.1939 0.30351 0.22889 -0.10602 0.27037 0.39462 -0.34676 0.44454 0.24675 0.010046 -0.1973 0.047917 0.24218 -0.16874 -0.33377 0.16378 -0.16363 -0.541 0.10246 -0.23631 0.20436 -0.12714 0.30465 0.19038 
business -0.15869 0.092936 -0.14921 -0.16403 -0.19447 0.20378 0.34131 -0.23588 0.12437 0.21579 0.11064 0.14764 0.12361 -0.26304 -0.016394 -0.40413 -0.077767 -0.0015473 -0.2543 0.026772 -0.41594 -0.011311 0.084538 -0.028638 -0.0024249 -0.13092 -0.12324 0.0462 0.34911 0.23403 -0.34644 0.53561 -0.16268 0.32578 -0.42268 0.21158 0.041334 -0.1858 -0.14511 -0.081923 0.023984 0.14704 -0.094737 -0.54768 0.056194 0.3189 0.11224 0.025773 -0.02736 -0.37394 0.22105 -0.001517 0.14019 0.090786 -0.27036 -0.047817 0.1271 0.11529 0.28091 -0.073473 0.1105 -0.077822 0.29881 -0.20213 -0.00017004 -0.058722 -0.062345 -0.17546 -0.20002 -0.21756 0.14205 0.19257 0.11767 0.11132 -0.18379 0.12323 0.38513 0.2657 0.10214 0.015321 -0.022584 -0.041452 0.31676 -0.27471 0.0059892 -0.19825 -0.084545 0.25531 -0.25814 -0.14764 -0.15002 0.11845 0.59202 0.073403 -0.021865 0.2565 -0.020376 -0.048185 -0.29346 0.12106 0.39202 -0.018956 0.39117 -0.094526 -0.53455 0.34976 -0.093439 0.18581 -0.16721 0.28916 -0.056817 0.012984 -0.14962 -0.0041473 -0.18865 0.078946 0.061151 -0.19463 -0.060693 -0.21074 0.43279 -0.071774 -0.16832 0.25697 0.46257 0.051193 -0.23055 0.25412 -0.055163 -0.24269 -0.048468 -0.066788 0.24962 -0.29523 0.46632 0.27965 -0.094263 -0.3518 -0.04527 0.12756 -0.20755 0.16894 0.0050048 -0.071729 0.24624 0.49824 0.2334 -0.0086999 -0.044927 -0.24062 0.24193 -0.06554 0.00097088 0.13863 0.16249 -0.17862 -0.17646 -0.58658 -0.01742 0.20274 0.1379 0.26922 -0.027135 0.39328 0.55117 0.10627 0.08248 -0.13155 0.29201 0.030254 0.06447 -0.55108 -0.22525 -0.27753 -0.36005 0.29333 0.034827 -0.11335 0.07868 -0.0096119 0.28886 0.02757 -0.1454 0.099589 0.21194 0.077886 -0.21378 0.023596 0.079008 0.13641 0.13496 -0.0673 -0.28072 -0.16333 -0.20292 0.07564 0.17172 0.20618 -0.17871 -0.22106 0.41453 0.17799 -0.067469 -0.36015 -0.17719 0.023725 -0.34406 0.062421 0.027855 -0.23212 0.35595 -0.25223 0.01736 -0.0074275 0.08055 -0.03049 0.12879 -0.04199 -0.0051141 -0.28978 -0.034505 0.016241 -0.19837 0.19593 -0.12614 0.017655 0.015308 -0.21182 -0.023569 0.22334 -0.28246 -0.32659 -0.12304 -0.19526 -0.20122 -0.10128 0.14405 0.20791 -0.060321 0.1582 0.12713 0.018553 0.0041344 -0.030645 0.13326 0.17157 -0.3123 0.10681 0.072434 -0.13557 -0.018911 -0.076384 -0.25973 -0.081956 -0.19905 0.0083542 -0.1183 -0.46028 0.041666 0.14963 0.12563 0.16015 0.22136 0.0018821 -0.25808 0.29114 0.44789 -0.28366 0.18579 -0.26174 -0.19031 0.069083 -0.14387 0.32534 -0.70443 -0.1996 0.5173 0.29229 -0.028502 0.11739 0.025009 0.027276 0.08169 -0.14136 0.18684 0.25561 -0.057058 -0.04632 -0.13722 0.016826 0.18926 0.11923 0.19796 -0.24029 0.21755 0.0088942 0.063142 0.15389 0.14472 -0.24933 
c -0.013152 -0.29961 0.12982 -0.042191 0.04946 0.030966 -0.2562 -0.36927 0.047118 0.066346 0.029182 -0.22008 0.1063 0.090526 0.33084 -0.59914 -0.244 0.16453 0.13405 0.011397 -0.12135 0.30883 -0.32261 -0.4251 -0.23154 0.28474 0.060917 -0.19916 -0.04872 0.40778 0.36575 0.22383 0.24635 -0.12192 0.20055 -0.27741 -0.16023 -0.0030573 0.26473 -0.30156 0.25469 -0.39629 -0.27147 0.055161 0.15911 0.095445 -0.081859 0.096005 -0.048922 -0.012778 0.079767 -0.1136 0.062703 0.12343 -0.085719 -0.059388 -0.0099885 0.33419 -0.1375 0.60308 0.013215 -0.18093 0.088559 -0.015944 0.018881 -0.11318 -0.0138 -0.44583 -0.12819 0.036565 0.12348 -0.050176 -0.013474 0.042207 0.307 0.30864 0.074007 0.078482 0.16532 0.18888 0.1773 0.37355 -0.27164 -0.38821 -0.18116 0.094754 -0.18368 0.19867 0.015411 -0.30112 -0.10887 0.2602 -0.082076 0.3156 0.17094 0.26037 0.30966 -0.091309 -0.12651 -0.031176 -0.10826 -0.12012 -0.15749 -0.041568 0.13772 0.069096 -0.17922 -0.0068176 0.25948 0.021692 -0.20484 0.15508 0.19611 -0.2611 0.095449 0.015056 0.22622 0.47014 0.085731 0.12998 0.10987 0.052568 0.19189 0.31929 -0.075098 -0.072711 -0.20632 0.012625 -0.30841 -0.033807 0.055446 0.20769 -0.058639 0.34792 0.26965 -0.037029 -0.38511 -0.18139 0.077583 0.15904 -0.015303 -0.098981 0.16259 0.27973 0.074719 0.28595 0.51024 -0.16073 0.30838 -0.062549 -0.046465 -0.36807 -0.26085 -0.29641 -0.19601 -0.3649 0.26736 -0.17491 0.12952 0.15826 0.42693 0.075666 -0.11813 0.31156 0.3985 -0.028129 0.39775 -0.16517 0.47753 0.2522 -0.42323 -0.041703 -0.26361 -0.11129 0.065114 0.27745 0.078113 0.21322 0.011769 -0.23454 -0.24552 -0.13694 0.21819 -0.25328 -0.33257 0.58438 -0.064612 -0.052793 0.45238 -0.14882 -0.26028 -0.11754 0.17799 -0.018346 -0.50317 -0.29555 0.42861 0.23508 0.12615 -0.091849 -0.22631 0.13194 -0.20726 -0.276 0.41239 -0.28195 0.044365 0.039409 0.30473 -0.22419 -0.11214 0.054523 0.027194 0.22939 -0.34742 -0.1513 -0.043902 0.23379 -0.66546 -0.040824 0.12216 -0.10846 0.072835 -0.15762 0.19944 0.09361 0.093557 -0.24815 0.11938 0.23179 -0.032202 -0.15582 -0.17914 -0.40335 0.034188 0.1863 -0.45101 0.28419 -0.030782 -0.084341 -0.18064 -0.18261 -0.081945 -0.36665 0.086 -0.33451 -0.52476 -0.14887 -0.09665 0.33443 -0.062907 0.073466 -0.11336 -0.094071 -0.11379 -0.27974 -0.076611 0.059816 -0.18218 0.13069 -0.22724 0.1583 0.27273 0.53089 -0.16505 0.098152 0.1228 -0.063228 -0.059442 -0.14307 -0.37868 -0.047 0.17883 0.066288 -0.12962 -0.18749 0.27479 -0.26228 -0.032287 0.12983 -0.011114 0.77524 0.27442 0.025816 0.40324 -0.20277 0.026911 0.5656 0.090488 0.13288 0.025603 -0.24803 0.32463 0.061542 -0.2523 -0.50119 -0.38149 0.17816 0.24468 0.21235 
cardiology 0.28637 -0.42305 0.23357 0.33037 0.097553 0.22368 0.31293 -0.054945 -0.26891 -0.048313 -0.022544 0.25315 -0.27867 -0.02514 0.0026982 -0.83852 0.43159 -0.26367 -0.75501 0.68789 -0.070004 0.64269 -0.067721 -0.1513 0.11167 -0.088135 -0.11965 0.15377 0.10476 0.55529 -0.046066 0.52913 -0.28826 0.070421 -0.5529 -0.14074 0.05878 0.067503 -0.19228 -0.16504 -0.37197 -0.16289 0.25698 0.15764 0.23904 0.16138 -0.12708 -0.29608 0.20885 -0.17248 -0.44035 0.19888 -0.30319 -0.053863 -0.041351 -0.63087 -0.11976 -0.49696 0.09812 0.6591 -0.48102 -0.057957 0.42806 -0.070361 0.05313 -0.091228 -0.015637 0.27916 -0.071311 0.31601 -0.096969 -0.076516 0.9794 0.16102 0.59665 0.027578 0.74606 0.62218 0.45054 0.054819 -0.035641 0.27257 0.11849 -0.23924 -0.28368 -0.31957 -0.27104 -0.10655 -0.083537 -1.2797 -0.13786 -0.37259 0.20827 -0.44466 0.27365 -0.04903 0.075294 0.067719 -0.14932 0.29238 0.41723 -0.10858 -0.20096 0.10962 0.50137 0.41759 -0.17002 0.30864 0.19458 0.15525 -0.11097 0.29224 -0.042444 -0.36277 -0.32017 -0.27973 -0.14789 0.68666 0.10225 0.19239 0.49846 -0.56284 -0.22606 0.5969 -0.14867 -0.057397 -0.089677 0.60227 -0.052388 0.26851 0.37521 0.42411 0.21288 -0.33098 0.18692 0.14388 -0.25467 0.29615 -0.37937 0.6206 -0.26291 0.35934 0.086826 0.087057 0.50781 0.10441 0.14608 0.10271 -0.055954 -0.23006 0.17926 -0.018847 -0.26521 0.034216 0.059982 0.04054 0.39072 -0.11584 -0.40537 0.26065 0.50823 0.55396 -0.26802 0.17925 0.85453 0.53805 -0.21316 0.00061348 0.14009 0.60572 0.18221 -0.15736 -0.28643 -0.16621 -0.17035 0.55482 0.18739 -0.61429 -0.90908 0.11683 -0.22677 -0.062274 -0.58743 -0.41356 -0.19238 0.23675 -0.29039 -0.26344 -0.013024 -0.021651 -0.46679 0.021729 0.040466 0.50158 -0.19665 0.14908 0.011397 -0.248 -0.46157 -0.73854 0.176 0.20371 0.085548 -0.25318 0.13558 0.06502 0.121 0.033207 -0.084424 -0.12719 0.14466 0.065654 -0.10423 -0.065478 -0.07963 -0.042398 0.1981 -0.45517 0.40094 0.61075 -0.19932 -0.23921 -0.83341 0.23433 -0.38065 0.004441 0.0044502 -0.455 0.11995 -0.10064 0.46652 0.011614 -0.4349 -0.27306 0.09772 -0.40759 0.066324 -0.035585 -0.2508 -0.037274 -0.065264 0.14988 -0.34823 -0.37623 -0.44622 0.68806 0.069527 -0.35154 0.21805 -0.19265 0.045842 0.33666 -0.19363 -0.030127 -0.2498 -0.088531 0.012052 -0.30013 0.24702 0.23833 -0.20985 0.60006 0.15838 0.11676 -0.065076 0.26235 -0.056051 -0.1705 0.31958 0.55165 0.21861 -0.35241 -0.1369 0.12455 0.14624 0.054818 -0.12037 0.30427 0.095566 0.3124 -0.49599 0.10714 -0.056344 -0.35589 -0.2108 -0.20857 -0.20212 0.057584 0.058736 0.12956 0.19031 0.61069 0.79763 -0.095656 -0.54268 -0.59622 0.51608 0.22077 0.33175 -0.23046 
cardiovascular 0.53503 -0.27217 -0.011442 0.33488 -0.16911 -0.28832 0.47709 -0.29181 -0.28571 -0.18669 0.44948 0.13514 -0.10416 0.093726 0.02222 -0.26618 0.22339 -0.22012 -0.37567 0.44199 0.46713 0.38712 -0.20766 -0.15959 -0.15451 0.28063 0.23946 -0.095506 0.082336 0.26078 -0.15535 0.44702 -0.33698 0.37466 -0.29991 -0.2738 -0.04979 0.060391 -0.084412 0.25108 -0.19743 0.13936 0.41229 0.22827 0.29577 -0.1239 -0.1987 -0.5151 0.36848 0.053942 -0.20832 -0.074078 -0.39261 -0.24047 -0.19613 -0.41015 -0.40412 -0.2903 -0.13037 0.49855 -0.4631 -0.10724 0.34775 -0.31288 -0.034739 -0.13151 -0.080269 0.43415 -0.13936 0.034478 -0.069319 -0.24042 0.7518 -0.0031444 0.58131 0.20296 0.58991 0.60774 0.087284 0.029966 0.42985 -0.02111 0.029399 -0.24097 -0.29133 -0.15765 0.0089465 0.017246 -0.34466 -1.21 0.19496 -0.17911 0.3804 -0.35283 0.18828 -0.40824 0.54001 0.14246 -0.051121 0.68058 0.20659 -0.1492 -0.17691 0.0037424 0.40727 0.32802 0.057173 0.46726 0.14022 0.22667 -0.55236 0.22902 -0.20878 -0.2794 -0.065784 -0.028519 0.027343 0.21764 -0.022345 -0.12157 0.21811 -0.69659 -0.21606 0.46957 -0.039902 -0.21997 -0.47768 0.48514 -0.384 0.266 0.27732 0.18174 -0.10097 -0.40392 0.41443 0.035407 -0.45702 0.30022 -0.67024 0.60024 -0.1064 0.31647 -0.1918 -0.11638 0.073743 0.092967 0.24823 0.53272 -0.033111 -0.14862 0.2928 -0.16997 0.026009 -0.035521 0.25286 0.095387 -0.11883 -0.036435 -0.28287 0.16875 0.28092 -0.037079 -0.17401 0.18853 0.66801 0.28077 -0.20074 0.026744 0.24602 0.51487 -0.058515 -0.49249 -0.30282 0.3739 0.037045 0.26975 -0.21729 -0.46097 -0.63756 -0.30385 -0.10829 -0.21952 -0.26648 -0.42775 -0.14598 0.4564 -0.11254 -0.20181 0.045872 -0.14314 -0.90329 -0.076507 0.015379 0.35764 -0.12741 0.40547 0.071422 0.17585 -0.1316 -0.43028 0.01638 -0.0669 0.057282 -0.15732 -0.43187 -0.037363 0.098784 -0.17338 -0.05911 -0.21764 0.57617 -0.064441 0.0093461 0.23535 -0.57665 -0.10401 -0.15803 -0.47983 0.19573 0.14275 -0.4171 -0.25311 -0.4923 0.32732 -0.33387 0.3769 -0.20039 -0.53755 0.2704 -0.085055 -0.043978 -0.15586 -0.51774 -0.31724 0.0027538 0.065797 0.024818 0.14043 -0.082433 0.037604 0.24497 -0.0045042 -0.30744 -0.40436 -0.32869 0.31425 0.090203 -0.56514 0.18223 0.065684 -0.078021 0.1076 -0.078205 0.22967 -0.53478 -0.17098 -0.17694 -0.47275 0.25797 -0.13033 -0.27316 0.67986 -0.044201 -0.11061 -0.30985 0.32924 -0.32653 0.34358 0.1614 0.54353 0.071386 -0.04089 -0.21264 0.16948 -0.066622 -0.034789 0.0056285 0.33954 0.17256 0.18843 0.031047 0.091426 0.087732 -0.20128 0.21899 -0.31209 0.062195 -0.098949 -0.12092 0.066712 -0.062089 0.49746 0.24971 -0.26506 -0.56916 -0.2079 0.23025 0.45125 0.32853 -0.58057 
clinical 0.36475 -0.060926 -0.21272 0.35682 -0.34521 -0.05028 0.51693 0.0026513 -0.22693 -0.062502 0.2022 0.32386 -0.25971 0.10307 0.22054 -0.62358 0.18192 -0.14886 -0.46823 0.45059 0.081819 -0.11192 -0.002882 -0.36493 0.061961 0.15549 0.13352 -0.075109 0.23055 0.61183 0.14142 0.27635 -0.41948 0.66953 -0.29124 -0.071385 -0.095949 -0.023731 -0.39562 -0.11146 -0.15448 0.20053 0.31097 0.079766 0.23262 0.18999 0.14669 -0.37309 0.5074 -0.11698 -0.032938 -0.0885 -0.44108 -0.39993 0.099546 -0.31383 -0.15428 -0.47114 -0.12599 0.69733 -0.059991 -0.13394 0.24549 -0.41002 0.12344 -0.32134 -0.053019 0.32598 0.09901 0.090033 -0.028377 -0.15118 0.56666 0.21414 0.40526 -0.21317 0.49517 0.42184 0.15646 -0.2491 0.41643 -0.14521 -0.049648 -0.40729 -0.1332 -0.15006 -0.092936 0.0026804 -0.43442 -0.70271 -0.11254 -0.30068 0.38769 -0.5132 -0.24251 -0.50229 0.18466 0.16569 -0.15769 0.4189 0.36685 -0.24804 0.16285 -0.2708 0.2645 0.4881 -0.13988 0.036216 0.25562 0.18626 -0.23375 0.051454 -0.15691 -0.080686 0.22857 -0.033516 -0.13583 0.33364 0.10194 0.027014 0.27778 -0.47636 -0.30939 0.68745 -0.091428 -0.52536 -0.37836 0.58091 0.031124 0.37883 0.033066 0.1438 -0.045649 -0.21933 0.10678 0.0094598 -0.23047 0.0009642 -0.10756 0.24375 -0.1103 0.27853 -0.014294 -0.22964 0.33025 0.085394 0.30099 -0.11871 -0.12459 -0.46424 0.31001 -0.23812 -0.049615 -0.17631 0.36504 0.30565 0.20075 -0.057249 0.097007 0.32113 0.28402 0.18287 -0.44242 -0.16186 0.36243 0.25095 0.049319 -0.20285 -0.053551 0.29172 -0.16083 -0.48188 0.082299 0.073634 -0.046088 0.087059 -0.28959 -0.27625 -0.7755 0.030379 -0.38925 -0.49709 -0.11145 -0.06332 -0.0012433 0.12511 0.026533 -0.12761 -0.26642 0.16393 -0.29401 -0.0356 0.28511 0.40237 -0.12522 0.086524 0.15363 -0.11061 -0.19726 -0.3153 0.18471 0.3481 -0.2865 -0.13499 0.0313 -0.28039 -0.11389 -0.077442 -0.10915 0.47702 0.48606 0.18247 -0.04369 -0.041603 -0.3534 -0.13999 0.20301 -0.17476 0.22593 0.12573 -0.011666 -0.45573 -0.36407 0.46333 -0.14896 -0.011028 -0.11506 -0.16568 -0.084728 0.0036002 0.30914 -0.054129 -0.42152 -0.022967 -0.055678 0.10812 -0.082612 -0.15644 -0.16275 0.3004 0.30133 -0.0659 -0.0678 -0.37627 -0.16884 0.35846 -0.38265 -0.17371 -0.077055 0.32908 -0.25979 0.30216 -0.19994 0.32397 0.17477 -0.36879 0.15953 -0.51179 0.47529 0.087051 -0.10998 0.6012 -0.064489 0.38532 0.039621 0.69038 0.098872 0.017362 -0.088742 0.27797 -0.1378 0.13506 -0.058252 0.34689 0.059874 -0.052558 -0.021711 0.25557 -0.02102 0.31607 -0.36539 0.11359 -0.15964 -0.090788 -0.048503 0.03358 0.060061 0.16454 -0.15072 0.24274 0.068416 0.12059 0.15657 -0.24673 -0.24274 -0.28286 0.11247 0.020766 0.082804 -0.56548 
cms -0.38991 0.12459 0.1298 0.70339 0.061862 0.16494 -0.032325 -0.14428 -0.34217 0.33225 -0.44452 -0.33219 -0.41936 0.081736 0.091964 -0.4258 0.20546 -0.2744 -0.087352 0.3936 0.25742 0.19931 -0.097488 -0.51357 0.064914 -0.52393 -0.52445 -0.47603 0.44387 0.0030178 -0.17128 0.4464 0.00060231 0.11126 -0.095729 0.033303 0.14691 0.74445 0.077335 -0.30311 -0.71458 0.042191 0.066221 0.42135 0.2555 0.37068 -0.46775 -0.18635 -0.42564 -0.055104 0.20186 -0.18751 0.021284 0.40101 -0.046592 0.057841 0.12585 -0.30433 -0.10984 -0.022641 -0.094013 0.085754 0.22193 -0.46714 -0.68178 -0.38704 0.40769 0.41413 -0.70745 0.12418 0.19785 0.45815 -0.031001 -0.43857 -0.05364 -0.42612 0.56225 0.49865 -0.05762 -0.27686 0.3164 -0.054253 -0.10907 -0.10393 0.14357 -0.074418 0.32398 0.45271 -0.10483 0.11127 0.48822 0.26029 0.39845 -0.27001 0.21317 0.12817 0.33259 -0.10256 0.093983 -0.081488 0.3673 -0.035262 0.60533 0.58171 0.16019 0.26328 0.086826 -0.073896 -0.0084502 0.10867 -0.26381 0.1422 -0.62936 0.15782 -0.64159 -0.64573 0.15565 0.2372 0.69231 0.013833 0.21381 -0.026027 0.043367 0.12287 -0.28061 -0.23663 -0.35405 0.052386 -0.33304 0.32952 -0.01023 0.19771 0.28872 -0.04499 -0.27474 -0.0025927 -0.11216 -0.25806 0.4168 0.8367 0.38291 0.4711 0.63796 0.087503 0.69383 0.14351 -0.048308 0.35224 0.24646 0.27831 -0.15229 -0.025406 -0.23101 0.3136 0.17434 -0.23644 0.17678 -0.17488 -0.21318 0.19784 0.75169 0.51533 -0.35069 0.035121 -0.12521 0.35722 0.11777 -0.29991 0.38873 0.67374 -0.75265 0.36385 -0.2728 -0.0043371 -0.10398 -0.064447 -0.28389 0.11195 -0.28344 -0.017195 -0.4398 0.025644 0.40994 0.24341 -0.17171 -0.034651 0.35765 0.20681 0.68579 0.26324 0.024424 0.18058 -0.26403 -0.6001 -0.26685 -0.25414 0.62775 0.13619 -0.33245 -0.17878 0.11639 0.13514 -0.355 -0.21475 0.37534 -0.21928 0.40368 0.030699 0.084575 -0.028135 0.54871 0.094371 0.36063 0.53052 0.047279 -0.23105 0.21576 -0.25551 0.067904 0.054562 -0.23987 -0.25706 -0.27854 -0.17132 0.4938 0.048889 -0.20231 -0.27366 -0.053211 0.14208 0.35576 -0.37956 -0.57912 -0.4213 -0.10632 -0.16192 -0.50377 -0.3875 -0.68376 -0.32978 0.25165 -0.11839 -0.18615 0.035804 -0.91366 -0.039454 0.17844 -0.041464 0.071748 0.53347 0.24274 -0.23091 -0.29743 -0.24705 -0.28092 -0.15599 0.22353 -0.5368 -0.2511 0.52594 0.30911 0.040802 -0.23287 0.27948 -0.35624 0.057478 -0.17344 -0.29704 0.58055 -0.36801 0.24907 0.42214 0.15415 -0.31398 0.047179 0.11636 0.085734 -0.34461 -0.35275 -0.29948 0.12349 -0.6301 -0.025542 0.018119 0.016721 0.090022 -0.25716 0.41502 -0.46639 0.36416 0.53733 0.092159 0.35182 0.018024 0.030812 -0.59433 -0.20905 0.035095 -0.08402 -0.4293 
code -0.23449 -0.019934 0.10382 -0.0020792 0.13142 0.25842 0.23335 0.7572 0.035416 -0.19552 -0.10925 0.12218 -0.48237 0.068605 -0.0017122 -0.13377 0.092069 0.44032 0.29921 0.43593 0.05972 0.18852 -0.14738 -0.18516 0.046584 -0.46921 -0.30858 -0.19734 -0.088751 0.15185 -0.1967 0.70886 0.19599 0.14566 0.0040463 -0.26151 0.40733 0.048389 0.07436 0.18209 -0.19098 -0.49242 0.16006 0.10542 -0.27053 0.1619 0.41483 -0.1288 -0.15405 0.01154 0.54598 -0.25147 -0.12252 0.040388 -0.18966 -0.19192 0.16968 -0.026413 0.15064 0.3772 -0.27301 -0.14651 0.24086 -0.22812 -0.32058 0.0201 -0.25272 -0.006291 -0.10209 0.34874 0.30414 0.046571 -0.26109 -0.22268 0.26331 0.25786 -0.2827 -0.11839 0.16021 -0.34873 -0.12499 0.62514 -0.48178 0.32956 -0.22849 -0.13597 0.17833 0.42733 0.15482 0.013593 0.1016 -0.11293 -0.11966 -0.35361 -0.2313 0.15049 -0.040938 0.39346 -0.11482 -0.33136 0.26603 -0.27618 -0.11193 0.26848 0.10858 -0.23093 -0.26055 -0.34821 0.21076 0.4246 -0.32143 0.11547 -0.42368 -0.085643 -0.091168 0.031243 0.37929 0.2012 -0.020407 0.26902 0.68391 -0.02846 -0.2368 0.45794 0.26132 -0.082961 -0.071064 0.29853 0.063437 0.049846 0.032485 0.18393 -0.62884 -0.066466 0.30372 -0.075629 -0.42499 0.028727 0.067644 0.076107 -0.020738 0.13587 0.34261 0.049202 0.51951 0.63543 0.074946 0.16187 0.096854 0.026507 0.27565 0.23641 0.078359 -0.29099 0.1177 -0.49892 -0.13018 -0.047837 0.054701 0.0081342 0.031629 0.4105 -0.63787 -0.026794 0.36318 0.19473 -0.09373 -0.37358 -0.097651 0.20044 0.29204 -0.38009 0.20835 0.052547 -0.46235 0.1103 -0.28692 0.26761 -0.17776 -0.37211 -0.10913 -0.13743 0.13514 0.25243 -0.24677 0.32758 -0.20848 -0.29316 -0.066807 -0.16528 0.19912 -0.32734 -0.064665 -0.51472 -0.22524 -0.23675 -0.23568 -0.24255 -0.34232 0.1889 0.035287 0.16335 -0.22715 -0.20702 -0.41472 -0.30338 -0.2116 -0.06344 0.14508 0.14697 -0.009546 0.45592 0.23364 0.041517 0.54091 -0.3695 -0.018801 -0.24446 -0.23728 0.056389 0.13245 -0.44892 -0.31804 -0.14979 0.19249 -0.056153 0.023751 -0.28847 -0.23444 0.064643 0.039189 -0.3137 0.0068843 -0.56317 -0.035107 -0.22118 0.1507 -0.22165 -0.0596 0.40065 -0.079487 0.2194 0.28691 -0.015118 0.32792 0.16263 0.097689 0.35805 -0.20451 -0.023071 0.093356 -0.3663 0.72146 0.29616 0.21831 0.0069479 0.39119 0.24843 -0.19084 -0.28364 -0.1919 -0.33752 -0.031499 0.14448 -0.34146 -0.076442 -0.1072 -0.081153 -0.11717 -0.52873 -0.54613 -0.049933 0.14563 -0.32476 0.10954 -0.283 0.32094 0.01249 0.049649 -0.30815 -0.033043 0.24171 0.096499 0.13087 0.37691 -0.53891 0.34103 -0.061187 -0.44473 -0.095137 0.05739 -0.59257 -0.048445 -0.2128 0.14749 -0.2115 -0.5883 -0.25278 0.066376 -0.17843 
collaboration -0.03546 -0.065428 -0.056847 -0.11896 -0.32894 0.40105 0.31778 -0.11141 -0.054122 0.29721 -0.13527 -0.066924 0.034845 0.081811 0.060683 -0.36979 0.35817 -0.091861 -0.039766 0.23112 -0.0087985 0.0033124 0.31027 -0.14793 0.22385 -0.17123 0.11467 0.051549 -0.0090043 -0.060536 -0.15791 0.18006 -0.13199 -0.12623 0.2364 -0.23063 -0.11781 -0.17412 0.10231 -0.026472 -0.064337 0.0093171 0.097233 -0.10554 0.023732 -0.0091595 -0.10484 -0.14794 -0.0069727 0.28108 0.12849 0.20779 -0.39397 0.013998 -0.047792 -0.039007 0.048925 -0.28348 -0.010579 0.26228 0.11541 0.17151 -0.091286 0.04393 0.01222 -0.12707 -0.074407 0.18089 -0.50901 0.23271 0.062495 -0.085611 0.014715 -0.1205 -0.07776 -0.091495 0.09859 -0.0094254 0.43034 0.025094 0.020347 -0.10595 0.046193 -0.022931 -0.01913 -0.42357 -0.35163 0.047091 -0.2401 -0.010346 0.037441 -0.037231 0.12105 0.030074 0.16071 -0.0093533 -0.11956 -0.26483 0.084036 0.085707 -0.13216 -0.21499 0.44234 0.10156 -0.46191 0.0047263 0.056542 0.1364 0.17856 -0.043433 -0.014287 0.24027 0.28269 -0.23158 -0.086677 -0.27689 -0.087249 0.32722 0.14008 0.040544 0.28814 -0.04616 -0.3328 0.095438 -0.010454 0.026917 0.054285 0.20575 -0.33551 0.23331 0.12404 -0.051802 -0.14031 -0.13139 0.18102 -0.098114 0.017706 0.2362 0.21815 0.38847 -0.14608 0.33144 0.19048 -0.098433 -0.17181 -0.019141 -0.062401 -0.0051229 -0.047304 0.020815 0.19126 -0.21003 0.15307 -0.56873 -0.036917 -0.14874 -0.38811 -0.24592 -0.20086 0.33272 0.26385 0.18575 0.14306 0.066695 0.39698 -0.013351 -0.19027 0.05506 0.14629 -0.2316 -0.12739 -0.40399 -0.16816 0.05963 0.035979 0.13939 0.074231 -0.027505 -0.22349 0.17521 0.17103 0.036291 -0.0607 0.10792 -0.04438 0.20042 -0.02641 -0.019508 0.47267 -0.064899 -0.14623 -0.26431 0.47308 -0.052 0.11153 -0.49238 -0.0096001 0.17832 -0.23906 0.12111 0.30224 0.097596 0.15218 0.043701 -0.2174 -0.16488 -0.14518 -0.54215 0.1347 0.19591 0.82021 0.141 -0.0079367 -0.32949 -0.10674 0.12535 0.1554 -0.3553 -0.17957 -0.18271 -0.058443 -0.43226 -0.53287 0.27716 -0.13828 0.21428 -0.27893 -0.39635 -0.18228 0.1557 0.2063 -0.15556 0.050178 -0.056103 -0.1379 -0.054829 0.15787 -0.048285 -0.2146 0.12377 0.079842 -0.049592 -0.056094 0.011426 0.23655 -0.20663 0.15625 0.066421 -0.26353 0.24543 -0.17692 0.080634 -0.4141 -0.057693 -0.045497 -0.30789 -0.41932 0.04183 0.33222 0.022059 0.34766 0.11306 0.15856 0.2435 0.011109 0.25382 -0.13981 -0.15641 0.12562 -0.33588 0.089815 -0.03172 0.13364 0.096257 0.019832 -0.076976 0.23643 0.26794 0.068623 0.18101 -0.19422 -0.052216 0.058398 0.0071105 0.096219 0.24489 -0.067112 0.24574 0.11362 0.008564 0.3907 0.029426 0.16798 0.013779 -0.22124 -0.10928 -0.12164 0.33495 0.26957 -0.12209 
community 0.15542 0.030108 0.27362 0.12759 -0.3385 0.072915 0.27123 -0.26441 0.47442 0.52574 -0.033181 0.23732 -0.11154 0.055354 -0.064088 -0.24097 0.072211 -0.05538 0.051302 0.32731 -0.11439 0.13619 0.06987 -0.050542 0.043252 -0.095594 -0.19445 -0.098616 0.10287 -0.076898 -0.47789 0.29629 -0.61651 0.022515 -0.23468 -0.07994 0.18524 -0.15622 0.10491 -0.096368 0.33017 0.21124 0.10066 0.075383 0.068853 0.60638 0.33814 -0.17938 -0.10078 -0.040412 -0.30188 0.12637 -0.26471 -0.012865 -0.24882 0.029373 -0.075248 0.40976 0.084271 0.3411 -0.21619 0.13264 0.16927 0.12143 -0.16122 0.0066117 -0.21982 -0.44979 -0.35187 -0.094646 0.27753 0.36927 0.44545 -0.13904 -0.09378 -0.041288 0.58502 -0.23955 -0.21281 -0.25733 -0.085115 0.15687 -0.049014 0.12396 0.12731 -0.35237 -0.19566 0.39633 -0.069418 0.022963 0.13745 0.19068 0.34596 -0.51093 0.045507 0.095644 0.037273 0.092193 -0.084447 0.095711 -0.1421 0.019367 0.15194 -0.13514 -0.099644 0.12755 -0.32351 0.47571 0.20203 -0.11166 0.057764 0.087324 -0.20423 -0.052573 0.038296 0.066705 0.29553 0.12448 0.10095 -0.012451 0.21701 -0.11317 -0.076101 -0.11924 0.31774 0.030342 0.27661 0.28879 -0.075127 0.051165 -0.48815 0.2791 -0.045249 -0.057821 0.084258 0.20379 -0.39342 0.15223 0.1245 0.41657 -0.13487 0.29233 -0.22792 0.08743 0.40529 -0.072668 -0.11503 0.074715 0.24397 0.00043283 -0.15932 -0.38345 0.020757 0.12585 -0.13078 -0.1651 0.15165 -0.23007 0.011364 0.16485 -0.022026 -0.11488 -0.44211 -0.012951 0.50638 0.44729 -0.17007 -0.26924 -0.1174 0.10321 0.012574 -0.1249 -0.48291 0.13944 -0.55789 -0.033886 -0.010237 0.33147 -0.33755 -0.42018 -0.084316 0.13377 -0.16205 0.32584 0.16691 0.19338 0.33608 -0.045185 -0.10255 -0.030025 0.19277 -0.39344 0.039289 0.15622 0.078067 -0.12004 0.32746 0.20525 -0.056576 -0.13569 0.39977 0.09487 -0.21934 -0.23906 -0.43184 0.2801 -0.14398 -0.21385 -0.11039 0.2727 0.62082 0.58584 0.17428 -0.098148 0.12034 -0.092611 0.07312 0.13899 0.054125 -0.018528 0.36916 0.06922 -0.50375 0.037796 0.081343 0.034339 -0.12989 0.2451 -0.13756 -0.093619 0.45776 -0.081609 0.16887 0.2418 0.17612 -0.032609 -0.024265 -0.0039598 -0.061483 0.029896 -0.17022 0.19576 -0.10876 -0.29317 0.17239 -0.10717 -0.030381 0.13301 -0.32633 -0.010779 -0.096483 -0.12208 -0.28542 -0.14137 -0.014012 0.020004 0.05581 -0.29217 0.33609 0.13203 -0.094465 -0.1887 0.18371 -0.08386 -0.13585 0.23159 0.24169 0.14374 -0.27144 -0.24003 0.11211 -0.15783 -0.23377 0.21348 -0.14242 0.19661 0.096014 -0.040903 0.050132 -0.068361 0.079942 0.13247 -0.029115 0.36923 0.11444 -0.27534 -0.072974 0.064709 0.19292 -0.11669 0.11635 0.033213 0.25275 0.14798 -0.033147 0.095779 -0.23383 0.13898 0.12833 0.20668 
computer 0.28889 -0.12919 0.2359 -0.1723 0.0021052 0.12904 -0.031209 -0.16258 0.010487 0.35578 0.1143 -0.10961 -0.3437 -0.076984 0.38383 0.15175 0.45929 0.17434 0.083435 0.35908 0.070583 0.19729 -0.049802 -0.31077 -0.33865 -0.2239 -0.025607 -0.023889 0.057526 0.09671 0.11488 0.22796 -0.20288 0.095689 -0.16738 0.34734 -0.14536 -0.017747 -0.028683 0.14323 0.078369 -0.12899 -0.052075 -0.25352 -0.39338 0.033345 0.056883 -0.16321 0.2586 -0.39672 0.035595 -0.091865 0.090431 -0.21409 -0.18362 0.0082516 -0.10977 0.058361 -0.13708 0.13999 0.24768 0.04357 -0.10459 -0.33551 -0.53282 -0.11059 0.18326 -0.095548 0.18348 0.01635 -0.011694 0.023878 0.37313 0.07775 -0.063832 0.44999 -0.12614 0.24247 -0.20532 0.02269 0.10801 0.055384 -0.088614 0.048821 0.066219 -0.054562 0.037164 0.047816 -0.083426 -0.097565 0.074467 0.18607 0.42862 -0.39994 0.46914 -0.039419 -0.27535 -0.17762 -0.14509 0.22797 0.36726 -0.27487 0.37154 0.092284 -0.1055 -0.13098 -0.5294 9.7271e-05 -0.20308 0.17505 -0.11515 -0.085617 -0.26743 0.15636 0.01767 -0.41418 0.20741 0.14189 -0.11678 0.017673 0.17331 -0.011506 -0.076906 0.282 0.39427 -0.47142 -0.25736 -0.030822 0.29831 0.28834 0.11564 0.06527 -0.13951 0.013776 0.36632 0.19198 -0.22875 0.039398 0.1231 0.4204 0.068573 -0.020114 0.22706 -0.35888 -0.28093 0.50756 0.037049 -0.3964 0.03537 -0.19744 0.40541 0.3588 -0.22708 -0.15516 -0.23317 -0.36012 0.44219 -0.19897 -0.1108 0.2084 0.17122 0.3123 -0.38608 0.23836 0.32643 0.51204 0.22866 0.15273 0.11873 0.282 -0.012269 0.052857 -0.24983 0.18624 -0.087219 0.31972 -0.0077646 -0.27183 -0.18866 -0.14926 -0.063541 0.26957 0.16922 -0.073839 0.08594 0.41829 -0.2835 0.27762 0.33399 -0.16417 -0.36791 -0.16958 0.27141 -0.19136 -0.28307 -0.09058 -0.51133 -0.19001 -0.53724 0.043463 0.23211 0.43334 -0.36492 -0.25512 -0.091178 0.10245 -0.34951 -0.24683 0.084217 -0.078718 0.3011 -0.0012422 0.077921 -0.14859 -0.066348 0.099087 -0.050007 -0.25838 -0.25924 -0.032473 -0.26057 -0.086051 -0.5233 0.48723 -0.30202 0.047753 0.048399 -0.27131 -0.10707 0.1552 -0.35319 -0.35183 -0.45362 -0.40074 0.21229 -0.38339 0.1796 -0.15824 -0.3018 0.2231 0.091857 -0.0093396 0.069512 -0.29225 -0.10433 0.31347 0.078293 0.0091356 0.23834 0.35798 0.20763 -0.037836 -0.12573 -0.131 0.073122 0.043645 0.17135 0.058997 0.26946 -0.1571 -0.15015 -0.0065697 -0.087158 -0.055542 -0.20943 0.23452 0.1928 -0.3181 0.39485 -0.1829 -0.47692 0.16341 -0.31386 -0.16084 -0.27835 -0.14615 -0.075929 0.48854 0.14147 0.20414 0.15089 0.33193 -0.20671 -0.020912 0.032846 0.048748 0.1247 0.46261 -0.43999 0.2675 0.21076 -0.23559 0.060683 -0.43448 0.62657 -0.13015 -0.15247 0.13578 -0.079162 -0.093989 
computing 0.20716 -0.098659 0.32544 0.24675 0.18138 0.36401 0.65413 -0.2778 0.15026 0.18156 0.02224 -0.27686 -0.11447 -0.09747 0.64026 0.092656 0.33622 0.21224 0.061975 0.67074 -0.16526 -0.03596 0.089974 -0.55235 -0.52052 -0.045932 -0.030254 0.017381 -0.20339 -0.081149 -0.065786 0.24124 -0.16216 0.41247 -0.18539 -0.19801 -0.23202 0.18542 -0.031742 0.07583 -0.22508 -0.21345 -0.10461 -0.11358 -0.043634 -0.063326 -0.077663 -0.095029 0.67251 -0.30868 -0.22272 -0.25022 -0.097815 -0.10515 -0.26765 -0.10431 -0.0055956 -0.13714 0.13487 0.16488 0.36479 -0.35923 -0.084141 -0.21521 -0.34653 -0.12654 0.15365 -0.055219 -0.22043 -0.080342 -0.30269 0.28137 0.64225 0.091836 0.11917 0.27606 0.083775 0.087683 0.028327 -0.09366 0.2659 0.20871 -0.15876 -0.20785 -0.030449 -0.22106 0.15667 0.13012 -0.034575 -0.24535 0.10453 0.18154 0.5073 -0.60917 0.49077 -0.20859 -0.12412 -0.032221 0.11525 0.21369 0.21048 -0.30275 0.47155 -0.091956 -0.38583 -0.070711 -0.36226 -0.036801 -0.13571 0.16173 -0.28108 -0.087941 -0.64322 0.032429 -0.20761 -0.42625 -0.17738 0.50476 -0.0054619 -0.20108 0.062499 -0.34102 -0.26074 0.17164 0.41064 -0.18643 -0.31342 0.14279 0.048307 0.22541 0.023204 0.24537 0.24707 -0.039131 0.30179 0.019924 -0.21091 -0.16483 0.32079 0.59984 -0.11963 -0.003886 0.33533 -0.43149 -0.095144 0.16422 0.048022 0.073671 -0.14096 -0.44441 0.13439 0.32905 -0.71046 -0.26264 -0.13671 -0.28891 0.40399 0.15444 -0.1251 0.34174 0.18291 0.43703 -0.21338 0.18085 0.31723 0.61923 0.27517 -0.13699 0.2129 0.27384 -0.34522 -0.23945 -0.36732 -0.0065205 -0.31864 0.43167 0.0058024 -0.26311 -0.32554 -0.2836 -0.18917 0.13115 0.10769 -0.034103 0.012325 0.022975 -0.30219 0.34511 0.48569 0.009545 -0.48099 -0.2447 0.20478 -0.14378 -0.090478 -0.0087889 -0.29003 0.034882 -0.54551 -0.11732 0.01814 0.51963 0.1247 -0.67513 -0.376 -0.1374 -0.4005 -0.26985 -0.10865 -0.084681 0.28228 0.32051 0.22577 -0.10947 0.13559 -0.15803 0.067342 -0.0533 0.10863 -0.22366 -0.20466 -0.25447 -0.7019 0.078934 -0.33507 0.10309 0.29205 -0.54789 -0.33747 -0.28665 -0.29162 -0.29306 -0.40012 -0.56717 0.32055 -0.55178 0.30969 -0.1787 -0.2485 0.099459 0.22096 -0.0010829 -0.13139 -0.3804 0.24249 0.080056 -0.04557 0.038362 0.045495 -0.29754 0.14248 0.010671 -0.10822 -0.13473 0.08613 0.24741 0.18629 -0.14511 0.1573 0.2875 0.10483 -0.25132 0.15629 0.23987 -0.23037 0.3644 0.13927 -0.4701 0.39594 -0.0073517 -0.19968 0.038229 0.093415 -0.16452 -0.07656 -0.2048 -0.074833 0.38424 -0.057585 -0.017148 0.011631 0.27148 -0.41818 -0.049253 0.095005 -0.081598 0.12733 0.24292 0.011869 0.48306 0.25093 -0.31634 0.07928 -0.56631 0.72016 -0.13593 -0.13126 0.049296 0.43157 -0.13848 
conference -0.12366 0.00074973 0.07752 0.20961 -0.15884 0.15754 -0.11036 -0.24645 0.001964 0.055772 -0.092048 -0.46368 0.18573 0.013472 0.10243 -0.31112 -0.099117 0.3187 0.0017253 0.3454 -0.13817 0.44379 0.033459 -0.19284 0.063259 -0.17166 -0.20437 -0.035911 -0.16589 -0.025737 -0.15714 -0.057897 -0.10168 -0.15637 0.36774 -0.31756 0.2427 0.24355 0.21813 -0.86472 0.073108 -0.52131 0.095876 -0.011993 0.077336 -0.14305 -0.21395 -0.36055 -0.042759 -0.127 0.020641 -0.64541 -0.22697 0.13815 -0.050255 -0.1624 -0.0037722 0.60304 0.22434 -0.0075654 -0.25839 0.26063 -0.030725 0.15046 -0.2952 0.07088 0.32068 -0.22104 -0.47221 0.36577 0.2494 0.2828 0.079818 -0.24232 0.20946 0.091027 -0.066107 0.14742 -0.22669 -0.021943 0.013318 0.078202 -0.24424 -0.14773 -0.053642 0.44963 0.19785 0.29787 0.56444 -0.31033 -0.36552 -0.1729 0.82131 -0.42728 -0.63538 0.057496 0.071202 0.16802 -0.31285 0.15636 0.13385 -0.1706 0.38801 -0.23466 -0.020508 0.23632 -0.01312 0.2625 -0.31112 -0.16343 -0.13084 -0.33883 0.08249 -0.0028026 0.080992 -0.27842 -0.065112 0.39673 -0.096247 -0.17776 0.074116 -0.2292 -0.41058 0.14294 0.047903 -0.18852 0.20084 0.28427 0.018845 -0.011857 -0.16735 0.26279 -0.12694 -0.68064 0.090072 -0.14312 -0.16204 -0.15535 0.24284 0.19585 0.11714 0.22155 0.060764 -0.18807 0.17182 0.11336 0.22435 -0.21707 0.028513 0.22813 0.31572 -0.29659 -0.50631 -0.10379 -0.012284 -0.36994 -0.016607 -0.37428 0.35928 0.36346 0.32456 0.24615 -0.29404 0.55759 0.23402 0.5747 -0.40634 0.23424 0.26933 0.0061381 0.28846 0.33127 -0.25265 -0.35831 -0.21338 0.29011 0.23992 0.0016707 0.12175 -0.298 -0.21769 0.30496 -0.19987 0.64006 -0.084575 0.48504 0.15801 0.16629 0.19884 -0.037357 0.034873 -0.24622 0.11207 -0.0624 -0.40374 0.42916 0.13033 0.012892 -0.1094 -0.29181 0.3568 -0.13991 0.07429 -0.15488 0.068261 0.28741 -0.25188 -0.54895 0.14526 0.28448 0.93347 0.1702 0.04605 -0.21249 -0.25399 -0.29651 -0.0045903 -0.53657 0.20126 0.060694 -0.21818 0.29612 -0.2054 0.36765 -0.30381 -0.35539 0.066284 -0.55782 -0.062879 -0.20093 0.25738 0.060527 -0.56919 0.18883 -0.47729 0.037671 -0.22441 0.43257 0.013525 0.48124 -0.33981 -0.065135 0.085923 -0.26022 0.074824 -0.31616 0.076451 -0.31639 0.18927 0.12408 0.53535 0.11541 -0.19635 -0.16239 -0.091735 0.10812 -0.49587 -0.1919 0.13458 0.072888 -0.2223 0.096337 0.055246 -0.13114 -0.26077 0.15389 0.22639 0.095248 0.33729 -0.039542 0.21919 0.21335 0.15845 -0.2382 0.24574 -0.036604 -0.37562 0.1018 0.21706 -0.046035 -0.34755 0.060801 0.083449 0.19249 -0.046486 -0.2225 0.26002 0.40382 0.016881 -0.0062052 0.50349 -0.29372 0.50514 0.13937 0.062114 0.099472 0.056013 -0.40543 -0.093404 0.22912 
conferences 0.14668 0.095715 0.013276 -0.035748 -0.092445 0.14924 0.0035959 -0.31551 -0.059834 0.28575 -0.15396 -0.1801 0.10651 -0.028323 0.36176 -0.29945 0.2022 0.5493 -0.15466 0.37916 -0.096409 0.28924 0.39312 -0.067521 0.2283 -0.41929 -0.37445 -0.10782 -0.23622 0.14553 -0.15708 0.21788 -0.092147 -0.19794 0.058841 -0.11036 -0.051115 0.3851 0.22895 -0.56377 -0.25363 -0.21269 0.099569 -0.35436 -0.027244 -0.086997 -0.025323 -0.32039 0.3068 -0.33183 0.046426 -0.49978 -0.25935 0.16397 -0.22205 -0.1374 -0.091742 0.29547 -0.15236 0.022968 -0.30784 0.31155 0.26646 0.18154 -0.057645 0.058069 0.022128 -0.17605 -0.37936 0.41493 0.35009 -0.080396 0.19503 0.099717 0.1813 -0.07048 0.090615 0.32126 -0.19549 -0.10081 0.11126 0.28851 -0.21764 -0.2966 -0.086606 0.13307 0.13007 0.12431 0.26214 -0.083575 -0.05935 -0.14732 0.96982 -0.41241 -0.32639 -0.038641 0.096866 0.38998 -0.37665 0.041911 0.19386 -0.085077 0.73673 -0.34473 -0.11202 0.3643 -0.19385 0.19863 -0.079252 0.068396 -0.21499 -0.40598 0.0073861 -0.40051 0.012531 -0.15603 0.1942 0.12778 0.051264 0.13634 0.10903 -0.3213 -0.34869 0.25492 -0.067554 -0.074274 0.26888 0.2077 -0.16927 0.15052 0.12778 -0.087426 -0.23915 -0.671 0.12669 -0.037884 -0.24934 -0.093468 -0.047101 0.43633 0.15177 0.23269 -0.078684 -0.18708 0.18265 0.242 0.24218 -0.060932 -0.07363 0.26478 0.39084 -0.57266 -0.24452 -0.073635 0.15745 -0.098112 0.1434 -0.34386 0.64497 0.35142 0.079836 0.41135 0.087595 0.54751 0.32634 0.4717 -0.16437 -0.0032117 0.21535 0.010349 0.078493 0.24835 0.11369 -0.24991 -0.23991 0.3106 0.32027 0.046521 -0.11979 -0.10555 -0.15633 0.40355 0.03311 0.5419 0.023687 0.2996 0.17502 0.11307 0.35527 0.038937 0.05505 -0.045099 0.25973 -0.15343 -0.54326 0.14177 0.22992 -0.11875 0.004001 0.071422 0.47293 0.019282 0.28284 -0.07576 -0.042522 0.37506 -0.29101 -0.2754 0.034479 0.36299 0.82786 0.071567 0.12888 -0.43661 -0.27094 -0.079247 -0.16887 -0.62334 0.33659 -0.11924 -0.14819 0.13014 -0.41311 -0.045269 -0.26478 -0.34737 0.091279 -0.55601 -0.085522 -0.059363 0.080527 0.28958 -0.39315 0.26835 -0.19098 0.13878 -0.03324 0.23842 -0.09978 0.33191 -0.17962 -0.016401 0.21323 -0.28474 -0.14157 -0.36891 0.24741 -0.207 -0.069907 0.21218 0.24384 0.16341 -0.24309 -0.41949 -0.19019 0.026636 -0.42475 -0.3911 0.15806 0.017268 -0.23336 -0.043878 0.03497 -0.24092 -0.3122 0.30378 0.24915 -0.09169 0.19099 0.22371 0.23097 0.2069 0.27819 -0.28542 0.094479 0.038716 -0.44326 -0.0083025 0.09923 -0.044044 -0.22206 0.2795 0.1232 0.1998 0.022364 -0.0048574 -0.020753 0.17256 -0.11769 0.054079 0.1067 -0.21046 0.32226 -0.091536 0.19722 0.22106 0.0023766 -0.32906 0.29764 0.32051 
cool -0.24122 -0.052791 -0.0029867 0.21626 -0.20003 -0.070722 0.18517 0.095463 0.31394 0.31103 0.2327 -0.15234 0.17257 -0.29679 0.1541 -0.11776 -0.017553 -0.39168 -0.12521 0.16093 -0.075832 0.031929 -0.25772 0.18294 -0.37806 -0.20586 0.039955 0.085693 0.032549 -0.10514 0.11632 0.26857 -0.28267 -0.19617 -0.13989 0.23624 -0.042096 -0.062815 -0.31087 -0.32101 0.65164 0.29676 -0.23231 0.081206 -0.093499 -3.7145e-05 -0.16108 0.28984 -0.49179 -0.18924 0.08666 0.021304 0.093495 -0.39046 0.31889 0.29727 -0.16331 0.45792 0.3255 -0.076063 -0.15687 0.13611 0.18971 0.11287 -0.31947 -0.34096 -0.42008 0.23016 -0.069661 -0.11387 -0.11663 0.21007 0.018629 0.0026347 -0.29513 0.18057 -0.056222 0.10994 -0.23591 0.034279 -0.13293 -0.0034103 0.17214 0.093046 -0.043252 -0.12246 -0.25528 0.15037 0.14509 0.20543 0.030333 0.021404 0.27792 -0.21584 0.047886 0.025295 -0.043605 -0.28343 0.074034 -0.15038 0.33095 -0.18015 0.012433 0.038399 -0.27392 -0.42182 -0.21789 0.27348 0.075741 -0.24117 0.15047 -0.00048851 -0.21401 -0.075003 -0.027853 0.10892 0.20446 -0.20692 0.013864 0.39201 0.26041 -0.35784 -0.062335 0.07478 0.12421 -0.035664 -0.14162 0.051839 -0.37042 0.45805 0.082203 0.47712 -0.069725 0.21504 0.46035 -0.14891 -0.16276 0.12927 -0.20727 0.096102 0.28551 0.23272 0.14129 0.14448 -0.14458 -0.093075 -0.16217 -0.32206 0.11903 -0.10834 0.35114 -0.10988 -0.28388 -0.37578 -0.033508 -0.26947 0.031417 -0.29987 -0.13454 -0.11508 0.29251 0.23046 -0.21129 -0.011564 -0.014965 0.32906 -0.25228 -0.34332 0.12226 0.18297 0.12375 -0.11727 -0.095565 0.0099827 -0.35339 0.30587 -0.41049 -0.38613 0.089214 -0.21058 0.18838 -0.23169 0.25168 -0.26806 -0.23203 0.46885 -0.38533 -0.079289 0.16462 -0.24501 -0.26611 -0.38904 0.15163 0.4709 -0.058011 -0.24218 -0.15791 0.035269 -0.44597 -0.092735 0.18572 0.17328 0.43185 -0.35333 0.018397 -0.509 -0.30423 -0.14612 -0.0077978 -0.015607 0.28058 -0.14874 0.056133 -0.17255 0.035106 -0.22385 -0.12727 -0.22835 -0.25866 -0.14595 -0.083606 -0.15596 0.15557 -0.41761 0.28084 -0.024099 -0.28331 -0.048398 -0.16247 0.40376 -0.14907 0.046904 0.01836 0.044501 -0.095988 -0.042296 0.16181 -0.070801 -0.16077 0.015114 0.22305 0.22603 0.084189 0.12482 0.16703 0.004925 0.25175 0.041069 -0.19371 0.11039 0.2133 0.17479 -0.26008 0.14885 0.27114 -0.53158 -0.29868 -0.42694 0.15066 0.070826 0.050876 0.20522 0.43415 -0.4356 -0.2246 -0.66128 -0.14989 0.24609 -0.25718 -0.13302 -0.27294 0.21821 0.3624 0.20718 0.091995 -0.26829 -0.19118 0.12169 -0.20626 0.011842 0.23695 0.0048427 -0.10422 0.12295 -0.035813 -0.23139 0.2222 -0.045881 -0.40447 0.0065788 -0.0074128 -0.10484 0.27124 0.027333 -0.091166 -0.25883 0.15352 0.22145 0.39115 0.17984 
coronary 0.3723 -0.14154 -0.095864 0.24541 -0.30658 -0.18138 0.42023 -0.48591 -0.62903 -0.35534 0.17988 0.34392 -0.38301 -0.016076 -0.0045774 -0.39113 0.13376 -0.035722 -0.37471 0.54855 0.12869 0.48729 -0.19597 -0.2242 -0.2323 0.27734 -0.098701 -0.073082 0.18527 0.011966 -0.60606 0.53555 -0.3181 0.13469 -0.039487 -0.30224 -0.15872 -0.2346 -0.028981 -0.0037942 0.12453 -0.079881 0.22205 0.23188 0.24329 -0.25888 -0.092784 -0.55894 0.1422 0.10883 -0.13827 0.10334 -0.53027 -0.30617 -0.22903 -0.18578 -0.022699 -0.29251 0.15566 0.10408 -0.415 0.034831 0.31027 -0.10081 -0.043704 -0.38846 -0.29499 0.49222 0.070752 -0.12719 0.28036 -0.41442 0.61279 -0.05812 0.29597 0.26761 0.64787 0.70825 0.21895 -0.31616 0.018245 -0.15326 -0.41 -0.10186 -0.48982 -0.32039 0.081458 0.2191 -0.45599 -0.92971 -0.012976 -0.39657 0.23351 -0.018756 -0.089573 -0.47377 0.22946 0.044374 -0.15422 0.82668 -0.045811 -0.14629 -0.28642 0.14374 0.5326 0.4591 -0.15131 0.61885 0.1609 0.32983 -0.035106 0.44652 -0.12775 0.15904 0.058606 -0.24467 0.085885 -0.042015 -0.19951 0.018175 0.33708 -0.39475 -0.1695 0.3882 0.053996 -0.24902 -0.36814 0.45522 -0.095965 0.19029 0.10581 0.23179 -0.1707 -0.085725 0.1245 0.18276 -0.16414 0.17043 -0.47844 0.38116 -0.11863 -0.066551 0.046354 0.048009 -0.11624 0.3224 0.3669 0.3556 -0.36412 0.061217 0.39488 0.085813 -0.057448 -0.085444 -0.083261 -0.11791 -0.06361 0.1335 0.047736 -0.001396 0.15672 0.078478 0.010924 0.10887 0.38418 0.21047 -0.2258 -0.0079009 0.025067 0.66121 -0.14026 -0.39971 -0.493 0.3115 -0.14216 0.26515 -0.40257 -0.39216 -0.61708 -0.22422 0.22294 -0.50184 -0.3743 -0.45382 -0.30859 0.61104 -0.47312 -0.35518 0.060249 -0.20935 -0.41527 -0.17718 -0.049002 0.69498 -0.23257 0.0048773 0.050271 0.60766 -0.25812 -0.16788 0.032014 0.069302 0.11227 0.011338 -0.26139 0.11441 0.12562 0.32127 -0.048399 -0.35962 0.20895 0.087138 -0.094221 0.11389 -0.16385 -0.17533 -0.1005 -0.58032 0.055116 0.020619 -0.25912 0.21231 -0.16936 0.2393 -0.0011829 0.13019 -0.36441 -0.30805 0.084634 0.0086262 -0.14275 -0.28554 -0.42986 -0.096757 -0.0035036 -0.202 -0.17458 0.17059 -0.29456 0.29618 0.62709 -0.17874 -0.33178 -0.46034 -0.53918 0.47684 -0.092336 -0.53901 0.34253 -0.13085 -0.1357 0.05628 -0.061985 0.29724 -0.57042 0.018084 0.089655 -0.52667 0.2162 0.32035 0.12772 0.66329 -0.22265 0.26335 -0.01164 0.054944 -0.66859 0.35821 0.1799 0.83441 -0.36594 0.017655 -0.18605 0.085334 -0.20844 0.20745 0.19002 -0.0964 0.23776 0.28033 0.16084 -0.031067 -0.060053 -0.30638 0.19941 -0.23285 -0.060538 0.10475 -0.22358 -0.049698 0.047055 0.63292 0.15182 -0.20785 -0.27003 -0.1622 0.56667 0.42609 0.34818 -0.18615 
css -0.18042 0.5292 -0.092153 0.0034901 -0.057388 -0.29102 0.18948 -0.479 -0.36803 -0.12767 -0.1579 -0.22572 -0.096188 0.016134 0.31653 -0.52085 -0.059712 -0.12176 0.066432 0.3862 0.001878 0.29055 -0.018755 0.10812 -0.58743 -0.44719 -0.0014945 -0.19398 -0.21223 0.30364 -0.10435 1.0877 -0.10163 0.23222 0.17638 -0.18644 -0.015322 0.60393 0.05172 0.1059 0.2836 -0.43711 0.95038 0.36835 0.0068225 -0.19132 -0.24345 -0.059938 -0.29662 -0.62116 0.37151 -0.51083 0.077749 -0.21365 -0.39208 -0.050096 0.21364 -0.25408 0.15713 0.76974 -0.42905 0.54236 0.3091 -0.62356 -0.5108 -0.36954 0.27982 0.25168 -0.1019 -0.1207 -0.25035 -0.26979 -0.26065 -0.6495 0.46953 0.66664 -0.12646 0.079602 -0.085837 0.12063 0.1998 0.28639 -0.20812 0.13249 -0.4874 -0.26549 0.36132 0.28753 0.016187 -0.22281 -0.017395 0.20181 0.64069 -0.10167 0.19944 0.0047338 -0.45933 -0.43487 0.50141 0.088703 -0.10442 0.014449 0.12175 0.32568 0.41381 -0.12251 -0.41196 -0.59144 -0.32937 -0.051645 -0.29563 0.46663 -0.10253 0.064105 -0.33589 0.12494 0.24568 0.51273 -0.034102 0.19012 0.5031 0.17356 -0.05692 0.65848 0.48131 -0.024938 0.20737 0.0039617 0.59947 0.13076 -0.017887 0.30426 -0.27992 -0.24297 0.11945 -0.14649 0.1131 0.089855 0.10969 0.47555 0.68632 0.34274 0.51362 0.44909 -0.076398 0.44458 0.32591 0.49428 0.18565 -0.11499 -0.28693 -0.31778 0.15041 0.42382 -0.13316 -0.34196 -0.15541 0.45362 0.19915 -0.34487 0.12982 0.12707 -0.37203 0.020459 0.038613 0.56709 0.37809 -0.54239 0.055732 0.40231 -0.15371 -0.18287 -0.042805 -0.070988 -0.088508 0.25146 0.41766 -0.7317 -0.030487 -0.87276 -0.045796 0.011364 0.46797 -0.14042 0.075951 0.69178 -0.50655 -0.16218 -0.40087 0.097516 0.40076 -0.12499 0.011997 -0.32848 -0.043256 0.043143 0.17048 -0.27878 -0.73077 -0.21795 0.39503 0.54142 0.022134 0.10455 0.25072 -0.64887 0.40693 -0.52343 0.73534 0.17089 0.35005 0.71951 0.59207 -0.24299 -0.10728 0.19571 0.38446 -0.21746 0.35912 0.22637 -0.024723 0.11677 0.16371 0.16537 0.14 0.56047 -0.28782 -0.22073 -0.090117 -0.20765 0.49152 -0.64293 0.029202 -0.57751 -0.59644 -0.21688 -0.2986 0.36517 0.30829 -0.50697 0.45467 0.56656 0.33381 -0.24655 -0.23194 -0.67709 0.092745 0.27154 0.049194 0.059265 0.094181 -0.78363 0.052046 0.12848 0.5846 -0.14734 0.74655 -0.39404 0.025252 0.24384 -0.1563 -0.51962 -0.094045 0.36689 0.04733 0.048397 -0.63135 0.51857 -0.076212 -0.13639 -0.11096 -0.11283 -0.38865 0.16998 0.10982 -0.29395 0.67825 -0.0089171 -0.011165 -0.46879 0.89535 -0.035516 -0.23924 -0.19154 0.16191 0.255 0.35562 0.022341 -0.22216 -0.24688 0.50146 -0.048077 0.04475 -0.61613 0.88861 0.58065 0.046219 -0.015128 0.095947 -0.36163 
culture 0.098219 -0.34747 -0.012644 -0.051389 -0.17237 0.53648 0.022488 -0.14146 0.095766 0.24253 0.044724 -0.032974 0.057275 -0.5008 -0.12813 -0.41911 -0.37003 -0.10431 0.19148 0.23503 0.091998 0.15764 0.15689 0.052598 -0.051413 -0.22451 -0.073664 -0.45566 -0.038066 0.058366 -0.19214 0.3195 -0.68928 0.15248 -0.079676 -0.21686 0.18893 -0.14584 -0.031681 0.35471 0.17219 -0.19922 0.1195 0.054908 0.28657 0.19529 0.040546 -0.16245 -0.068062 -0.14322 -0.2732 0.14668 -0.21623 -0.073908 0.028465 -0.23854 -0.09055 0.16349 -0.28077 -0.13694 -0.060332 -0.23682 0.37135 0.10565 0.040576 -0.14378 -0.26122 0.1327 -0.23942 -0.038885 -0.10601 0.11475 0.13693 0.14871 0.05203 -0.35804 0.11068 -0.36726 -0.05624 -0.053747 -0.016277 -0.10229 0.14809 -0.062325 0.10873 -0.18472 -0.10026 -0.21121 -0.25009 -0.041665 0.016253 -0.21547 0.44605 -0.35881 0.35301 -0.14519 -0.01818 0.14446 0.24386 -0.33332 -0.374 -0.32184 -0.16555 -0.17318 -0.1756 0.16102 -0.14607 0.16653 0.0011972 -0.31953 -0.011877 -0.17755 -0.18073 -0.019328 -0.14372 -0.23041 0.21343 -0.064966 -0.13999 -0.12024 -0.12172 -0.23247 -0.15578 -0.21098 0.30468 0.10172 -0.012841 -0.047067 0.17224 0.076589 -0.20206 -0.14846 0.18073 0.12628 0.030461 -0.034856 -0.56663 -0.15102 -0.2677 0.10596 0.22284 0.53582 0.31671 0.59076 0.033947 -0.023609 -0.37922 -0.24727 0.093176 -0.17969 0.245 -0.21339 0.30758 0.065221 -0.27956 0.0086943 -0.36715 0.017814 0.3115 0.16124 0.23839 0.16056 -0.33584 -0.20405 0.61257 0.35126 0.18459 -0.41166 0.75308 -0.014723 0.15786 -0.24941 -0.1291 -0.17287 0.12588 0.0034712 0.44304 0.089649 0.10819 -0.186 0.082321 0.16597 0.089511 0.06084 -0.27966 0.33098 0.29244 -0.36164 0.04413 0.288 -0.031813 -0.47674 0.18127 -0.091529 -0.33491 0.064396 -0.42395 0.36876 -0.049215 -0.033792 0.15956 0.029013 -0.061074 0.069126 0.1174 -0.18248 -0.35808 -0.34517 0.074787 0.21092 0.48274 0.33636 0.35366 0.011143 0.017517 0.11244 0.14861 -0.3748 -0.29065 0.016749 0.17567 -0.43569 -0.53967 -0.083687 -0.62129 0.082492 -0.21676 -0.17173 -0.22358 -0.030915 0.13606 -0.051758 -0.1676 -0.14775 0.031063 0.058745 0.17257 0.22755 -0.20201 -0.01107 -0.17975 -0.038803 0.2389 -0.1364 0.31214 -0.025656 -0.22686 0.32331 0.15767 -0.42267 -0.17995 -0.058115 0.098922 0.056666 -0.39394 -0.218 -0.13043 -0.57999 0.32216 0.16527 0.054116 -0.29187 0.13138 -0.109 -0.44898 -0.097461 -0.12348 -0.27453 -0.11236 0.2545 0.14195 0.16122 -0.039437 0.44959 0.15828 0.02553 -0.081124 -0.02233 0.25213 0.084435 0.15954 0.13525 -0.095993 0.079881 -0.10409 -0.30358 0.0011883 -0.2322 -0.25705 0.31176 -0.13499 -0.07512 0.16685 -0.49719 -0.17902 -0.12303 -0.32591 0.16857 0.10389 -0.0365 
data -0.19787 -0.063247 0.103 0.27501 0.022485 0.28983 0.37716 -0.35169 -0.13122 0.044286 0.25302 0.052676 -0.16262 0.16243 0.056932 -0.10027 0.1644 0.048406 0.56067 0.07625 -0.15113 0.16387 -0.23896 -0.02959 -0.47869 -0.10711 -0.044508 -0.14209 -0.041427 -0.21168 0.057937 0.50493 -0.311 0.67493 -0.21097 -0.017857 -0.26231 0.48697 -0.10443 0.20342 0.13151 -0.43797 0.0010333 0.25369 -0.14285 0.21984 0.50561 -0.39339 0.58718 -0.10593 -0.025534 -0.24947 -0.40619 -0.4876 -0.027743 0.082796 0.26614 -0.35859 -0.16774 0.098202 -0.33182 -0.16258 0.2455 -0.63168 -0.10044 0.082662 -0.33126 0.046087 -0.27121 0.51939 -0.097923 -0.095963 0.31591 -0.10982 -0.060122 0.18497 0.2167 0.15294 0.18842 0.20729 0.41295 0.37777 0.008869 -0.13352 0.037634 -0.10616 0.20203 0.050467 0.063632 0.089253 -0.21416 0.1078 0.40376 0.22675 -0.33105 -0.35613 -0.32415 -0.11729 -0.07705 0.36234 -0.019196 -0.11696 0.39835 0.030246 -0.04372 0.14932 -0.6688 -0.079004 -0.12916 -0.036878 -0.082389 -0.26393 -0.35857 0.08131 0.050102 -0.1934 0.3384 0.22457 -0.050342 -0.038206 0.26357 -0.11576 -0.40408 0.29806 0.058903 -0.34403 0.2115 -0.041606 -0.16327 0.2543 -0.34312 0.21957 0.043257 0.24547 -0.13484 -0.2457 -0.54352 -0.2 0.17986 0.38289 0.3385 -0.01379 0.14517 -0.36372 -0.18688 0.31417 0.32201 -0.3831 0.085311 -0.22767 0.12234 -0.1482 0.18995 -0.045696 0.38587 -0.12616 0.035145 -0.1772 -0.19709 -0.13266 0.38585 0.32761 -0.31378 0.0083539 0.15415 -0.14725 0.16445 -0.25818 0.22709 0.073827 -0.3268 0.055197 0.13676 0.029761 -0.32084 0.19212 -0.36126 -0.082756 -0.083348 -0.081346 -0.087827 0.26138 -0.053685 0.27007 0.11098 0.36368 -0.03179 0.29888 0.12546 0.21475 -0.2266 -0.02329 -0.23397 -0.11688 -0.19267 -0.33412 0.039732 0.23543 -0.65043 0.041547 0.048713 -0.023195 0.080624 -0.095952 -0.27785 -0.40613 -0.2406 -0.11052 0.21206 -0.18333 0.16197 0.11454 0.23836 -0.18367 0.21386 -0.26504 0.23805 -0.19467 -0.011437 -0.088753 -0.048287 -0.18555 -0.17886 0.32969 0.20694 0.052349 -0.24624 -0.54962 -0.28981 0.01137 0.14698 -0.18759 -0.32222 -0.17537 -0.15189 -0.51598 -0.25434 -0.17616 -0.12914 0.29323 0.61763 0.033458 0.059435 -0.52633 -0.35331 -0.040236 0.17943 0.28804 0.13841 0.15854 0.045785 -0.29642 -0.092658 0.31985 0.16602 0.02473 0.57777 0.17384 -0.032718 -0.034148 0.13395 -0.086744 -0.24642 0.12717 -0.50457 0.010851 -0.30283 -0.46496 0.30595 0.22059 -0.22816 0.62251 0.23009 -0.3075 -0.4154 0.35256 0.070534 0.61785 -0.030901 -0.034924 -0.077182 0.10199 0.31027 -0.38715 -0.37777 -0.42727 0.24041 -0.072166 -0.30535 -0.15904 0.47176 -0.27407 -0.15057 0.06019 0.38011 -0.22565 -0.16237 0.28477 -0.0083631 0.019537 
database 0.0040534 -0.32537 -0.1529 -0.10181 -0.3811 0.13698 0.41009 0.48244 0.022497 -0.0085371 0.32042 0.0011359 0.11126 0.096177 0.26783 -0.64033 -0.16373 0.12173 -0.066654 0.44092 -0.13908 0.074085 -0.48887 -0.17845 -0.35132 -0.12624 -0.19432 0.10884 0.44093 -0.53455 -0.24435 0.023091 0.095241 0.33258 -0.12097 0.088015 -0.095439 0.47925 0.011149 0.17255 0.0179 -0.67392 0.13502 0.020453 -0.44741 -0.21375 0.13518 -0.48099 0.1827 -0.18322 0.12292 -0.22845 -0.36986 -0.35007 0.064586 0.25963 0.0092968 -0.30419 0.15438 0.39003 0.2874 -0.17591 0.4803 -0.20596 0.33974 -0.018111 -0.17304 0.14399 -0.028352 0.37024 0.20739 -0.13345 0.83725 -0.035229 -0.056901 0.14905 0.15266 0.20676 -0.16978 0.13028 -0.12486 0.40418 -0.24236 -0.018927 -0.038661 -0.23238 0.69676 -0.17687 -0.40563 -0.19806 0.037696 0.434 -0.12062 -0.31508 -0.19399 -0.44902 -0.15306 -0.44211 0.27752 0.14354 0.13143 -0.50567 0.14503 -0.11013 -0.1368 -0.50923 -0.29186 0.23808 0.17009 0.19392 -0.055881 -0.14977 -0.36202 0.04785 -0.19007 0.19498 0.42035 0.41503 0.049597 0.065492 0.59993 -0.040268 -0.32205 0.1487 0.39594 -0.43414 0.20819 0.25749 -0.079434 -0.23756 -0.52588 -0.019929 -0.25784 0.32799 0.14374 -0.12945 -0.37855 0.24235 0.68375 0.19584 0.45085 0.25968 0.38632 0.0066628 -0.10591 0.42158 0.038232 0.077349 -0.046503 0.023533 0.052044 -0.45105 -0.13567 -0.10051 -0.20325 -0.064362 0.16312 -0.24741 -0.04746 0.23735 -0.064105 -0.11537 -0.26708 0.11486 0.070973 -0.094045 0.24103 -0.37421 0.17824 -0.085134 -0.14825 -0.45147 -0.53884 0.048355 -0.30237 -0.30126 0.034631 0.056775 0.014272 -0.10894 -0.31546 0.58375 0.42446 -0.1693 -0.096331 0.034405 0.057092 0.19245 0.12651 -0.10136 0.27848 -0.02082 0.019794 0.13396 0.20593 -0.27275 0.22695 -0.13019 -0.4095 0.093575 0.54031 -0.14453 -0.022028 -0.17637 -0.12325 -0.54032 -0.13248 -0.53905 0.71678 0.04615 0.28487 -0.18229 0.59921 0.22555 -0.37768 0.0072988 -0.20357 -0.11277 0.1518 -0.17932 -0.65928 0.14425 -0.096739 -0.079092 -0.15885 0.076299 -0.19395 -0.55092 -0.59533 0.16388 -0.1644 -0.31401 -0.038732 0.062786 -0.088815 -0.0024857 -0.05024 0.061565 -0.01211 -0.059475 0.21738 0.20506 0.34207 -0.30022 0.12754 0.069961 0.11155 0.3421 0.082568 0.63296 -0.12643 -0.33947 -0.0021521 0.29104 -0.0054662 0.097867 0.21345 -0.060436 0.078269 -0.23643 0.40501 -0.042942 -0.16536 -0.038779 -0.43449 0.29804 -0.068663 -0.78286 0.047968 -0.18363 -0.0044907 0.77357 -0.46021 -0.16511 0.12899 0.21645 0.065667 0.75489 0.22791 -0.10982 0.25762 -0.18792 0.033157 -0.16245 -0.36984 -0.21176 -0.22097 0.43543 -0.20208 0.31717 0.16652 -0.10004 0.052958 -0.17647 -0.016829 -0.25771 -0.27327 -0.018033 0.0083735 0.18898 
